{"learner":{"attributes":{"scikit_learn":"{\"_estimator_type\": \"classifier\"}"},"feature_names":["phoneme_score","pattern_score","nonsense_score","reading_wpm","questionnaire_score"],"feature_types":["float","float","float","float","float"],"gradient_booster":{"model":{"gbtree_model_param":{"num_parallel_tree":"1","num_trees":"600"},"iteration_indptr":[0,3,6,9,12,15,18,21,24,27,30,33,36,39,42,45,48,51,54,57,60,63,66,69,72,75,78,81,84,87,90,93,96,99,102,105,108,111,114,117,120,123,126,129,132,135,138,141,144,147,150,153,156,159,162,165,168,171,174,177,180,183,186,189,192,195,198,201,204,207,210,213,216,219,222,225,228,231,234,237,240,243,246,249,252,255,258,261,264,267,270,273,276,279,282,285,288,291,294,297,300,303,306,309,312,315,318,321,324,327,330,333,336,339,342,345,348,351,354,357,360,363,366,369,372,375,378,381,384,387,390,393,396,399,402,405,408,411,414,417,420,423,426,429,432,435,438,441,444,447,450,453,456,459,462,465,468,471,474,477,480,483,486,489,492,495,498,501,504,507,510,513,516,519,522,525,528,531,534,537,540,543,546,549,552,555,558,561,564,567,570,573,576,579,582,585,588,591,594,597,600],"tree_info":[0,1,2,0,1,2,0,1,2,0,1,2,0,1,2,0,1,2,0,1,2,0,1,2,0,1,2,0,1,2,0,1,2,0,1,2,0,1,2,0,1,2,0,1,2,0,1,2,0,1,2,0,1,2,0,1,2,0,1,2,0,1,2,0,1,2,0,1,2,0,1,2,0,1,2,0,1,2,0,1,2,0,1,2,0,1,2,0,1,2,0,1,2,0,1,2,0,1,2,0,1,2,0,1,2,0,1,2,0,1,2,0,1,2,0,1,2,0,1,2,0,1,2,0,1,2,0,1,2,0,1,2,0,1,2,0,1,2,0,1,2,0,1,2,0,1,2,0,1,2,0,1,2,0,1,2,0,1,2,0,1,2,0,1,2,0,1,2,0,1,2,0,1,2,0,1,2,0,1,2,0,1,2,0,1,2,0,1,2,0,1,2,0,1,2,0,1,2,0,1,2,0,1,2,0,1,2,0,1,2,0,1,2,0,1,2,0,1,2,0,1,2,0,1,2,0,1,2,0,1,2,0,1,2,0,1,2,0,1,2,0,1,2,0,1,2,0,1,2,0,1,2,0,1,2,0,1,2,0,1,2,0,1,2,0,1,2,0,1,2,0,1,2,0,1,2,0,1,2,0,1,2,0,1,2,0,1,2,0,1,2,0,1,2,0,1,2,0,1,2,0,1,2,0,1,2,0,1,2,0,1,2,0,1,2,0,1,2,0,1,2,0,1,2,0,1,2,0,1,2,0,1,2,0,1,2,0,1,2,0,1,2,0,1,2,0,1,2,0,1,2,0,1,2,0,1,2,0,1,2,0,1,2,0,1,2,0,1,2,0,1,2,0,1,2,0,1,2,0,1,2,0,1,2,0,1,2,0,1,2,0,1,2,0,1,2,0,1,2,0,1,2,0,1,2,0,1,2,0,1,2,0,1,2,0,1,2,0,1,2,0,1,2,0,1,2,0,1,2,0,1,2,0,1,2,0,1,2,0,1,2,0,1,2,0,1,2,0,1,2,0,1,2,0,1,2,0,1,2,0,1,2,0,1,2,0,1,2,0,1,2,0,1,2,0,1,2,0,1,2,0,1,2,0,1,2,0,1,2,0,1,2,0,1,2,0,1,2,0,1,2,0,1,2,0,1,2,0,1,2,0,1,2,0,1,2,0,1,2,0,1,2,0,1,2,0,1,2,0,1,2,0,1,2,0,1,2,0,1,2,0,1,2,0,1,2,0,1,2,0,1,2,0,1,2,0,1,2,0,1,2,0,1,2,0,1,2,0,1,2,0,1,2,0,1,2,0,1,2,0,1,2,0,1,2,0,1,2,0,1,2,0,1,2,0,1,2,0,1,2],"trees":[{"base_weights":[1.1158594E-2,3.374891E-1,-5.699536E-1,-2.961374E-1,6.580898E-1,-6.177925E-1,1.6799997E-1,8.901099E-1,-6.526083E-1,4.8933458E-2,9.767442E-1,-4.433498E-1,-7.0024574E-1,9.795918E-2,-4.588236E-1,-5.2987017E-2,1.147317E-1,-3.2301872E-9,-5.7576504E-2,-4.491979E-2,1.1559184E-1,8.570143E-2,1.8563533E-2,-4.114286E-2,-3.2301872E-9,-5.7044085E-2,-3.2876715E-2,1.9199997E-2,-5.217392E-2],"categories":[],"categories_nodes":[],"categories_segments":[],"categories_sizes":[],"default_left":[0,0,0,0,0,0,0,0,0,0,0,0,0,0,0,0,0,0,0,0,0,0,0,0,0,0,0,0,0],"id":0,"left_children":[1,3,5,7,9,11,13,15,17,19,21,23,25,-1,27,-1,-1,-1,-1,-1,-1,-1,-1,-1,-1,-1,-1,-1,-1],"loss_changes":[1.134885E2,7.804307E1,7.7017517E0,5.5318108E1,4.9407204E1,2.5997925E0,9.7595E0,2.656906E1,4.3837395E0,7.627302E1,1.1522491E1,2.1280794E0,2.0953369E-1,0E0,1.4326341E0,0E0,0E0,0E0,0E0,0E0,0E0,0E0,0E0,0E0,0E0,0E0,0E0,0E0,0E0],"parents":[2147483647,0,0,1,1,2,2,3,3,4,4,5,5,6,6,7,7,8,8,9,9,10,10,11,11,12,12,14,14],"right_children":[2,4,6,8,10,12,14,16,18,20,22,24,26,-1,28,-1,-1,-1,-1,-1,-1,-1,-1,-1,-1,-1,-1,-1,-1],"split_conditions":[2.5E0,7.62E1,1.624E2,2.3E0,2E-1,7.2E0,2.9E0,1E-1,1E-1,1.9E0,1.6E0,6.7E0,1.413E2,9.795918E-2,3.3E0,-5.2987017E-2,1.147317E-1,-3.2301872E-9,-5.7576504E-2,-4.491979E-2,1.1559184E-1,8.570143E-2,1.8563533E-2,-4.114286E-2,-3.2301872E-9,-5.7044085E-2,-3.2876715E-2,1.9199997E-2,-5.217392E-2],"split_indices":[2,3,3,1,1,1,0,0,0,0,2,1,3,0,1,0,0,0,0,0,0,0,0,0,0,0,0,0,0],"split_type":[0,0,0,0,0,0,0,0,0,0,0,0,0,0,0,0,0,0,0,0,0,0,0,0,0,0,0,0,0],"sum_hessian":[5.964444E2,3.822222E2,2.1422221E2,1.2844444E2,2.5377776E2,2.0133333E2,1.2888888E1,2.9333332E1,9.911111E1,8.755555E1,1.6622221E2,6.6666664E1,1.3466666E2,4.444444E0,8.444444E0,7.5555553E0,2.1777777E1,9.333333E0,8.977777E1,6.133333E1,2.6222221E1,1.471111E2,1.911111E1,5.733333E1,9.333333E0,1.2755555E2,7.1111107E0,1.7777777E0,6.666666E0],"tree_param":{"num_deleted":"0","num_feature":"5","num_nodes":"29","size_leaf_vector":"1"}},{"base_weights":[8.900383E-3,-5.502785E-1,7.356322E-1,4.027397E-1,-6.774194E-1,3.0832705E-1,1.284878E0,-4.7619093E-2,8.4324324E-1,-4.122138E-1,-7.198444E-1,1.1317614E0,-6.52174E-1,-1.463415E-1,1.3323263E0,1.984962E-2,-5.1692314E-2,8.481203E-2,1.9672127E-2,-4.996283E-2,3.609019E-3,-5.8714904E-2,-4.4524893E-2,1.0612844E-1,4.021621E-2,-5.647059E-2,-1.0434786E-2,3.4285713E-2,-4.1379314E-2,1.07790336E-1,3.3103447E-2],"categories":[],"categories_nodes":[],"categories_segments":[],"categories_sizes":[],"default_left":[0,0,0,0,0,0,0,0,0,0,0,0,0,0,0,0,0,0,0,0,0,0,0,0,0,0,0,0,0,0,0],"id":1,"left_children":[1,3,5,7,9,11,13,15,17,19,21,23,25,27,29,-1,-1,-1,-1,-1,-1,-1,-1,-1,-1,-1,-1,-1,-1,-1,-1],"loss_changes":[2.4391255E2,4.1375565E1,6.085936E1,8.085754E0,3.0749207E0,1.178806E2,7.929062E0,3.8775399E0,2.4026423E0,4.268219E0,1.8287659E-1,9.152199E0,1.8414307E0,1.1930795E0,9.680023E-1,0E0,0E0,0E0,0E0,0E0,0E0,0E0,0E0,0E0,0E0,0E0,0E0,0E0,0E0,0E0,0E0],"parents":[2147483647,0,0,1,1,2,2,3,3,4,4,5,5,6,6,7,7,8,8,9,9,10,10,11,11,12,12,13,13,14,14],"right_children":[2,4,6,8,10,12,14,16,18,20,22,24,26,28,30,-1,-1,-1,-1,-1,-1,-1,-1,-1,-1,-1,-1,-1,-1,-1,-1],"split_conditions":[2.8E0,7.21E1,1.6E0,1E-1,8.85E1,7.11E1,3E0,1.8E0,6.16E1,6E-1,1.7E0,5.65E1,1E0,2.8E0,1.918E2,1.984962E-2,-5.1692314E-2,8.481203E-2,1.9672127E-2,-4.996283E-2,3.609019E-3,-5.8714904E-2,-4.4524893E-2,1.0612844E-1,4.021621E-2,-5.647059E-2,-1.0434786E-2,3.4285713E-2,-4.1379314E-2,1.07790336E-1,3.3103447E-2],"split_indices":[0,3,2,0,3,3,0,4,3,0,0,3,2,2,3,0,0,0,0,0,0,0,0,0,0,0,0,0,0,0,0],"split_type":[0,0,0,0,0,0,0,0,0,0,0,0,0,0,0,0,0,0,0,0,0,0,0,0,0,0,0,0,0,0,0],"sum_hessian":[5.9822217E2,3.382222E2,2.5999997E2,3.9555553E1,2.9866666E2,1.471111E2,1.12888885E2,1.9999998E1,1.9555553E1,4.2666664E1,2.5599998E2,7.911111E1,6.799999E1,3.5555553E0,1.0933333E2,1.3777777E1,6.222222E0,1.3777777E1,5.7777777E0,2.8888887E1,1.3777777E1,2.3244443E2,2.3555553E1,5.9555553E1,1.9555553E1,6.133333E1,6.666666E0,1.3333333E0,2.222222E0,1.0711111E2,2.222222E0],"tree_param":{"num_deleted":"0","num_feature":"5","num_nodes":"31","size_leaf_vector":"1"}},{"base_weights":[6.700123E-3,7.076865E-1,-6.687341E-1,3.4858516E-1,1.3043479E0,-7.020477E-1,-4.285715E-1,-5.020925E-2,6.453305E-1,2.1897806E-1,1.1707317E-1,-5.6416776E-2,-3.658537E-1,7.402597E-1,-5.8131494E-2,1.1534193E-2,-4.9297303E-2,6.0867276E-2,1.4328354E-2,5.123595E-2,-3.789474E-2,-2.0435877E-9,-4.1379314E-2,-6.486489E-3,9.795918E-2],"categories":[],"categories_nodes":[],"categories_segments":[],"categories_sizes":[],"default_left":[0,0,0,0,0,0,0,0,0,0,0,0,0,0,0,0,0,0,0,0,0,0,0,0,0],"id":2,"left_children":[1,3,5,7,9,11,13,15,17,19,-1,-1,21,23,-1,-1,-1,-1,-1,-1,-1,-1,-1,-1,-1],"loss_changes":[2.8313495E2,6.2419266E1,2.1357727E0,2.187277E1,1.8651459E1,2.4658203E-2,1.4357613E1,8.854107E0,5.5662727E0,4.7473054E0,0E0,0E0,2.5231284E-1,3.5019803E0,0E0,0E0,0E0,0E0,0E0,0E0,0E0,0E0,0E0,0E0,0E0],"parents":[2147483647,0,0,1,1,2,2,3,3,4,4,5,5,6,6,7,7,8,8,9,9,12,12,13,13],"right_children":[2,4,6,8,10,12,14,16,18,20,-1,-1,22,24,-1,-1,-1,-1,-1,-1,-1,-1,-1,-1,-1],"split_conditions":[1.5E0,2.5E0,8.6E0,1.04E2,3.3E0,1.918E2,3E0,2E-1,7E-1,9.2E1,1.1707317E-1,-5.6416776E-2,1.6E0,1.1E0,-5.8131494E-2,1.1534193E-2,-4.9297303E-2,6.0867276E-2,1.4328354E-2,5.123595E-2,-3.789474E-2,-2.0435877E-9,-4.1379314E-2,-6.486489E-3,9.795918E-2],"split_indices":[0,2,4,3,4,3,0,0,2,3,0,0,2,2,0,0,0,0,0,0,0,0,0,0,0],"split_type":[0,0,0,0,0,0,0,0,0,0,0,0,0,0,0,0,0,0,0,0,0,0,0,0,0],"sum_hessian":[5.9599994E2,2.9244443E2,3.0355554E2,1.8355554E2,1.08888885E2,2.648889E2,3.8666664E1,7.8666664E1,1.04888885E2,1.4222221E1,9.4666664E1,2.613333E2,3.5555553E0,7.5555553E0,3.1111109E1,5.9111107E1,1.9555553E1,8.355555E1,2.1333332E1,8.888888E0,5.333333E0,1.3333333E0,2.222222E0,3.111111E0,4.444444E0],"tree_param":{"num_deleted":"0","num_feature":"5","num_nodes":"25","size_leaf_vector":"1"}},{"base_weights":[1.1375939E-2,3.7552693E-1,-4.9543917E-1,-2.8272972E-1,6.4910716E-1,-5.8701104E-1,-5.4159004E-2,9.831595E-1,-6.5010655E-1,9.246173E-2,9.523212E-1,1.18568815E-1,-6.238239E-1,9.396335E-1,-2.8625783E-1,8.669915E-2,-3.355818E-2,-5.3851012E-2,1.9647304E-2,4.4391517E-2,-1.497506E-2,5.088956E-2,9.1380626E-2,6.96802E-2,-2.2602951E-2,-2.6660558E-2,-5.2724093E-2,9.969114E-2,-3.4258395E-2,1.0252944E-2,-4.0092237E-2],"categories":[],"categories_nodes":[],"categories_segments":[],"categories_sizes":[],"default_left":[0,0,0,0,0,0,0,0,0,0,0,0,0,0,0,0,0,0,0,0,0,0,0,0,0,0,0,0,0,0,0],"id":3,"left_children":[1,3,5,7,9,11,13,15,17,19,21,23,25,27,29,-1,-1,-1,-1,-1,-1,-1,-1,-1,-1,-1,-1,-1,-1,-1,-1],"loss_changes":[1.1159922E2,6.354662E1,1.0184742E1,4.9003742E1,4.1913925E1,5.509842E0,1.0545004E1,3.810892E0,1.840519E0,1.1595279E1,8.9422455E0,3.6316552E0,1.8179245E0,4.1679153E0,3.3488698E0,0E0,0E0,0E0,0E0,0E0,0E0,0E0,0E0,0E0,0E0,0E0,0E0,0E0,0E0,0E0,0E0],"parents":[2147483647,0,0,1,1,2,2,3,3,4,4,5,5,6,6,7,7,8,8,9,9,10,10,11,11,12,12,13,13,14,14],"right_children":[2,4,6,8,10,12,14,16,18,20,22,24,26,28,30,-1,-1,-1,-1,-1,-1,-1,-1,-1,-1,-1,-1,-1,-1,-1,-1],"split_conditions":[1.6E0,7.21E1,1.376E2,2.3E0,3E-1,2.2E0,3E0,4E-1,1.31E1,1.035E2,4.4E0,9E0,2.3E0,1.43E1,1.6E0,8.669915E-2,-3.355818E-2,-5.3851012E-2,1.9647304E-2,4.4391517E-2,-1.497506E-2,5.088956E-2,9.1380626E-2,6.96802E-2,-2.2602951E-2,-2.6660558E-2,-5.2724093E-2,9.969114E-2,-3.4258395E-2,1.0252944E-2,-4.0092237E-2],"split_indices":[2,3,3,1,1,1,2,2,4,3,1,4,2,4,4,0,0,0,0,0,0,0,0,0,0,0,0,0,0,0,0],"split_type":[0,0,0,0,0,0,0,0,0,0,0,0,0,0,0,0,0,0,0,0,0,0,0,0,0,0,0,0,0,0,0],"sum_hessian":[6.0267816E2,3.5084912E2,2.5182906E2,1.0299681E2,2.4785231E2,2.0827815E2,4.3550907E1,2.2790445E1,8.020637E1,8.786083E1,1.5999147E2,1.0217708E1,1.9806044E2,7.668363E0,3.5882545E1,2.1477684E1,1.3127606E0,7.8437965E1,1.7684004E0,3.2739006E1,5.5121822E1,6.167148E1,9.832E1,3.1455224E0,7.0721855E0,2.254681E1,1.7551363E2,6.337311E0,1.3310524E0,1.2390808E1,2.3491737E1],"tree_param":{"num_deleted":"0","num_feature":"5","num_nodes":"31","size_leaf_vector":"1"}},{"base_weights":[9.330209E-3,-5.442509E-1,6.2049806E-1,-6.382929E-1,-2.4055576E-1,-6.3097286E-1,1.0370532E0,-5.7122044E-2,-4.56505E-1,-5.6390677E-2,-4.2878915E-2,-5.805899E-2,-1.4937882E-1,3.5740834E-1,1.0898274E0,-1.3359999E-2,-5.670105E-2,3.4377445E-2,-2.6741918E-2,6.522747E-2,-2.6760055E-2,7.7678196E-2,-4.096953E-2,4.871921E-2,9.266714E-2],"categories":[],"categories_nodes":[],"categories_segments":[],"categories_sizes":[],"default_left":[0,0,0,0,0,0,0,0,0,0,0,0,0,0,0,0,0,0,0,0,0,0,0,0,0],"id":4,"left_children":[1,3,5,7,9,11,13,-1,15,-1,17,-1,19,21,23,-1,-1,-1,-1,-1,-1,-1,-1,-1,-1],"loss_changes":[2.0058534E2,8.731461E0,1.4754315E2,2.9360275E0,6.8686395E0,3.1313438E0,7.20665E0,0E0,5.172806E0,0E0,7.5502315E0,0E0,2.582095E0,9.432494E0,5.7525635E0,0E0,0E0,0E0,0E0,0E0,0E0,0E0,0E0,0E0,0E0],"parents":[2147483647,0,0,1,1,2,2,3,3,4,4,5,5,6,6,8,8,10,10,12,12,13,13,14,14],"right_children":[2,4,6,8,10,12,14,-1,16,-1,18,-1,20,22,24,-1,-1,-1,-1,-1,-1,-1,-1,-1,-1],"split_conditions":[2.4E0,5E-1,3.7E0,8.9E0,4.4E0,2.5E0,3E0,-5.7122044E-2,3.3E0,-5.6390677E-2,1E-1,-5.805899E-2,2.7E0,2.7E0,5.8E0,-1.3359999E-2,-5.670105E-2,3.4377445E-2,-2.6741918E-2,6.522747E-2,-2.6760055E-2,7.7678196E-2,-4.096953E-2,4.871921E-2,9.266714E-2],"split_indices":[0,0,1,1,1,1,0,0,4,0,2,0,0,4,1,0,0,0,0,0,0,0,0,0,0],"split_type":[0,0,0,0,0,0,0,0,0,0,0,0,0,0,0,0,0,0,0,0,0,0,0,0,0],"sum_hessian":[5.908691E2,3.1009866E2,2.8077042E2,2.3593687E2,7.41618E1,6.998809E1,2.1078233E2,1.6448485E2,7.145202E1,2.1378803E1,5.2782993E1,5.80571E1,1.1930998E1,1.5747859E1,1.9503447E2,3.404368E1,3.740834E1,1.995097E1,3.2832027E1,1.3727661E0,1.0558231E1,9.164437E0,6.5834217E0,2.5556944E1,1.6947752E2],"tree_param":{"num_deleted":"0","num_feature":"5","num_nodes":"25","size_leaf_vector":"1"}},{"base_weights":[-2.5359808E-2,6.1596185E-1,-6.563885E-1,2.8372902E-1,1.1622435E0,-6.7837185E-1,-3.4727266E-1,-1.0307154E-1,5.638523E-1,2.0573688E-1,1.04736716E-1,-1.9098373E-1,-5.4765176E-2,6.9843704E-1,-5.4975852E-2,-1.9541264E-2,3.7633803E-2,2.3366923E-2,6.414234E-2,6.0644664E-2,-4.1531306E-2,-4.013672E-2,1.8414829E-2,8.871314E-3,8.099339E-2],"categories":[],"categories_nodes":[],"categories_segments":[],"categories_sizes":[],"default_left":[0,0,0,0,0,0,0,0,0,0,0,0,0,0,0,0,0,0,0,0,0,0,0,0,0],"id":5,"left_children":[1,3,5,7,9,11,13,15,17,19,-1,21,-1,23,-1,-1,-1,-1,-1,-1,-1,-1,-1,-1,-1],"loss_changes":[2.4560597E2,5.430195E1,1.8430023E0,2.0482477E1,1.5687592E1,7.280426E-1,8.427383E0,6.5944457E0,6.844864E0,6.9213557E0,0E0,7.6417476E-1,0E0,9.910586E-1,0E0,0E0,0E0,0E0,0E0,0E0,0E0,0E0,0E0,0E0,0E0],"parents":[2147483647,0,0,1,1,2,2,3,3,4,4,5,5,6,6,7,7,8,8,9,9,11,11,13,13],"right_children":[2,4,6,8,10,12,14,16,18,20,-1,22,-1,24,-1,-1,-1,-1,-1,-1,-1,-1,-1,-1,-1],"split_conditions":[1.5E0,2.5E0,9.8E0,1.04E2,3.3E0,1.6E0,2.6E0,1E-1,2.2E0,9.2E1,1.04736716E-1,4.6E0,-5.4765176E-2,1.1E0,-5.4975852E-2,-1.9541264E-2,3.7633803E-2,2.3366923E-2,6.414234E-2,6.0644664E-2,-4.1531306E-2,-4.013672E-2,1.8414829E-2,8.871314E-3,8.099339E-2],"split_indices":[0,2,4,3,4,0,0,2,4,3,0,4,0,2,0,0,0,0,0,0,0,0,0,0,0],"split_type":[0,0,0,0,0,0,0,0,0,0,0,0,0,0,0,0,0,0,0,0,0,0,0,0,0],"sum_hessian":[6.0489636E2,3.000133E2,3.0488306E2,1.8750035E2,1.1251296E2,2.8352515E2,2.1357912E1,7.901991E1,1.0848043E2,1.5304632E1,9.720833E1,3.9568198E0,2.7956833E2,4.980811E0,1.6377102E1,6.386935E1,1.5150559E1,5.1679043E1,5.680139E1,8.660208E0,6.6444244E0,2.1669111E0,1.7899086E0,2.2059803E0,2.7748308E0],"tree_param":{"num_deleted":"0","num_feature":"5","num_nodes":"25","size_leaf_vector":"1"}},{"base_weights":[7.0051807E-3,2.7944815E-1,-5.201192E-1,1.2014305E-1,3.7738997E-1,-3.9728415E-1,-6.5296376E-1,-5.312314E-1,8.267756E-1,1.0576324E0,-8.392877E-2,1.2051013E-1,-6.3960594E-1,-3.717655E-1,-5.6193084E-2,-5.2628424E-2,4.580277E-2,7.944602E-2,-9.360045E-3,9.311536E-2,-4.695208E-3,2.9486658E-2,-2.4942245E-2,-2.065845E-2,5.941814E-2,1.8417018E-2,-5.3142216E-2,-4.3036997E-2,7.2287746E-2],"categories":[],"categories_nodes":[],"categories_segments":[],"categories_sizes":[],"default_left":[0,0,0,0,0,0,0,0,0,0,0,0,0,0,0,0,0,0,0,0,0,0,0,0,0,0,0,0,0],"id":6,"left_children":[1,3,5,7,9,11,13,15,17,19,21,23,25,27,-1,-1,-1,-1,-1,-1,-1,-1,-1,-1,-1,-1,-1,-1,-1],"loss_changes":[8.623711E1,6.1311646E0,3.0794716E0,7.048699E1,7.687111E1,1.3736822E1,1.0841675E0,1.1529366E1,1.163427E1,1.1811417E1,1.5243205E1,8.568881E0,1.7477989E0,4.0032725E0,0E0,0E0,0E0,0E0,0E0,0E0,0E0,0E0,0E0,0E0,0E0,0E0,0E0,0E0,0E0],"parents":[2147483647,0,0,1,1,2,2,3,3,4,4,5,5,6,6,7,7,8,8,9,9,10,10,11,11,12,12,13,13],"right_children":[2,4,6,8,10,12,14,16,18,20,22,24,26,28,-1,-1,-1,-1,-1,-1,-1,-1,-1,-1,-1,-1,-1,-1,-1],"split_conditions":[2.5E0,2E-1,7.9E0,2.6E0,3.9E0,3E0,4.3E0,1.26E1,9E-1,9.2E0,2.8E0,1.4E0,3.7E0,1.8E0,-5.6193084E-2,-5.2628424E-2,4.580277E-2,7.944602E-2,-9.360045E-3,9.311536E-2,-4.695208E-3,2.9486658E-2,-2.4942245E-2,-2.065845E-2,5.941814E-2,1.8417018E-2,-5.3142216E-2,-4.3036997E-2,7.2287746E-2],"split_indices":[2,0,4,1,1,0,1,4,2,4,0,0,1,0,0,0,0,0,0,0,0,0,0,0,0,0,0,0,0],"split_type":[0,0,0,0,0,0,0,0,0,0,0,0,0,0,0,0,0,0,0,0,0,0,0,0,0,0,0,0,0],"sum_hessian":[5.984775E2,3.9486322E2,2.0361424E2,1.5118436E2,2.4367888E2,1.0786613E2,9.574812E1,7.879723E1,7.238712E1,9.795122E1,1.4572766E2,3.4547516E1,7.33186E1,1.5593451E1,8.015467E1,7.105033E1,7.7468977E0,6.1498455E1,1.0888672E1,8.939528E1,8.555939E0,4.8596546E1,9.71311E1,2.1839119E1,1.27084E1,1.7924845E0,7.152612E1,1.4307215E1,1.2862353E0],"tree_param":{"num_deleted":"0","num_feature":"5","num_nodes":"29","size_leaf_vector":"1"}},{"base_weights":[-3.3151386E-3,-4.8689196E-1,6.42875E-1,5.1344895E-1,-6.385761E-1,2.6697072E-1,1.0852978E0,-2.6717464E-2,8.7508094E-1,-3.992983E-1,-6.787572E-1,9.21482E-1,-5.7187897E-1,1.099826E0,1.1007028E-2,-2.3774471E-2,6.513401E-2,8.641038E-2,3.2789346E-2,-4.7736324E-2,3.010812E-3,-5.55209E-2,-4.3489404E-2,8.4471226E-2,3.8447186E-2,-6.5912404E-3,-5.5480402E-2,6.280032E-2,9.078208E-2],"categories":[],"categories_nodes":[],"categories_segments":[],"categories_sizes":[],"default_left":[0,0,0,0,0,0,0,0,0,0,0,0,0,0,0,0,0,0,0,0,0,0,0,0,0,0,0,0,0],"id":7,"left_children":[1,3,5,7,9,11,13,15,17,19,21,23,25,27,-1,-1,-1,-1,-1,-1,-1,-1,-1,-1,-1,-1,-1,-1,-1],"loss_changes":[1.8746764E2,5.2393974E1,4.2416916E1,8.957167E0,2.5979538E0,7.7479294E1,1.4682922E0,4.633721E0,2.173296E0,3.9326277E0,1.4646149E-1,4.1807404E0,3.6367397E0,3.824005E-1,0E0,0E0,0E0,0E0,0E0,0E0,0E0,0E0,0E0,0E0,0E0,0E0,0E0,0E0,0E0],"parents":[2147483647,0,0,1,1,2,2,3,3,4,4,5,5,6,6,7,7,8,8,9,9,10,10,11,11,12,12,13,13],"right_children":[2,4,6,8,10,12,14,16,18,20,22,24,26,28,-1,-1,-1,-1,-1,-1,-1,-1,-1,-1,-1,-1,-1,-1,-1],"split_conditions":[3E0,7.21E1,1.6E0,1E-1,8.85E1,7.02E1,1.5E1,7.02E1,5.77E1,6E-1,1.7E0,5.65E1,1E-1,2.4E0,1.1007028E-2,-2.3774471E-2,6.513401E-2,8.641038E-2,3.2789346E-2,-4.7736324E-2,3.010812E-3,-5.55209E-2,-4.3489404E-2,8.4471226E-2,3.8447186E-2,-6.5912404E-3,-5.5480402E-2,6.280032E-2,9.078208E-2],"split_indices":[0,3,2,0,3,3,4,3,3,0,0,3,4,2,0,0,0,0,0,0,0,0,0,0,0,0,0,0,0],"split_type":[0,0,0,0,0,0,0,0,0,0,0,0,0,0,0,0,0,0,0,0,0,0,0,0,0,0,0,0,0],"sum_hessian":[5.9792816E2,3.4213657E2,2.5579161E2,4.47342E1,2.9740237E2,1.3915881E2,1.1663279E2,1.8310337E1,2.6423862E1,4.4333652E1,2.5306871E2,7.8112854E1,6.1045956E1,1.1471375E2,1.9190383E0,1.4343504E1,3.9668343E0,1.7422775E1,9.001087E0,3.0285194E1,1.4048459E1,2.236845E2,2.9384226E1,5.8794235E1,1.9318623E1,1.2483416E1,4.8562542E1,1.380676E1,1.0090699E2],"tree_param":{"num_deleted":"0","num_feature":"5","num_nodes":"29","size_leaf_vector":"1"}},{"base_weights":[-1.4137112E-2,5.8742326E-1,-6.4095116E-1,2.7356508E-1,1.0221819E0,-6.6532934E-1,-4.1393825E-1,9.7468174E-1,-6.46882E-1,1.5001442E-1,9.548487E-2,-5.662918E-2,-6.2551606E-1,6.226571E-1,-5.467366E-2,8.709557E-2,-5.443991E-3,-5.3683046E-2,3.390986E-2,5.5837512E-2,-1.3616214E-3,-1.8159179E-2,-5.0955195E-2,8.4151775E-2,-1.6481707E-2],"categories":[],"categories_nodes":[],"categories_segments":[],"categories_sizes":[],"default_left":[0,0,0,0,0,0,0,0,0,0,0,0,0,0,0,0,0,0,0,0,0,0,0,0,0],"id":8,"left_children":[1,3,5,7,9,11,13,15,17,19,-1,-1,21,23,-1,-1,-1,-1,-1,-1,-1,-1,-1,-1,-1],"loss_changes":[2.266313E2,4.157168E1,1.3534698E0,1.1646062E2,1.8986557E1,4.5394897E-3,9.137907E0,1.22337265E1,2.307251E0,2.043921E0,0E0,0E0,5.1571274E-1,2.6918309E0,0E0,0E0,0E0,0E0,0E0,0E0,0E0,0E0,0E0,0E0,0E0],"parents":[2147483647,0,0,1,1,2,2,3,3,4,4,5,5,6,6,7,7,8,8,9,9,12,12,13,13],"right_children":[2,4,6,8,10,12,14,16,18,20,-1,-1,22,24,-1,-1,-1,-1,-1,-1,-1,-1,-1,-1,-1],"split_conditions":[1.5E0,1.9E0,9.1E0,4.4E0,4.1E0,3E-1,3E0,1.26E1,1.5E1,5.5E0,9.548487E-2,-5.662918E-2,4E-1,1.23E1,-5.467366E-2,8.709557E-2,-5.443991E-3,-5.3683046E-2,3.390986E-2,5.5837512E-2,-1.3616214E-3,-1.8159179E-2,-5.0955195E-2,8.4151775E-2,-1.6481707E-2],"split_indices":[0,2,4,1,4,2,0,4,4,1,0,0,2,4,0,0,0,0,0,0,0,0,0,0,0],"split_type":[0,0,0,0,0,0,0,0,0,0,0,0,0,0,0,0,0,0,0,0,0,0,0,0,0],"sum_hessian":[5.990395E2,3.0570953E2,2.9333E2,1.7848676E2,1.27222786E2,2.6314133E2,3.0188646E1,1.0128086E2,7.720589E1,2.1201452E1,1.0602133E2,1.19108955E2,1.4403238E2,5.958402E0,2.4230244E1,9.125852E1,1.0022345E1,7.586763E1,1.3382597E0,4.210474E0,1.6990978E1,4.5952487E0,1.3943712E2,3.7477632E0,2.210639E0],"tree_param":{"num_deleted":"0","num_feature":"5","num_nodes":"25","size_leaf_vector":"1"}},{"base_weights":[-7.7245906E-3,2.4955893E-1,-5.11258E-1,-5.057408E-1,4.381718E-1,-5.583105E-1,1.5924571E-1,8.6991966E-1,-6.563549E-1,1.5038446E-1,7.605468E-1,-5.3517785E-2,-4.4259915E-1,8.126591E-2,-4.143448E-1,-1.9425097E-3,8.423878E-2,3.7270195E-3,-5.558875E-2,-3.9712444E-2,6.523276E-2,8.4827125E-2,9.492585E-3,6.674116E-2,-3.7627455E-2,1.8541299E-2,-4.8597805E-2],"categories":[],"categories_nodes":[],"categories_segments":[],"categories_sizes":[],"default_left":[0,0,0,0,0,0,0,0,0,0,0,0,0,0,0,0,0,0,0,0,0,0,0,0,0,0,0],"id":9,"left_children":[1,3,5,7,9,11,13,15,17,19,21,-1,23,-1,25,-1,-1,-1,-1,-1,-1,-1,-1,-1,-1,-1,-1],"loss_changes":[7.611509E1,5.561931E1,6.3569984E0,1.6766853E1,2.8803665E1,2.0839806E0,7.204175E0,1.3586674E0,1.9547386E0,7.177677E1,2.8117401E1,0E0,3.7159424E0,0E0,1.2612379E0,0E0,0E0,0E0,0E0,0E0,0E0,0E0,0E0,0E0,0E0,0E0,0E0],"parents":[2147483647,0,0,1,1,2,2,3,3,4,4,5,5,6,6,7,7,8,8,9,9,10,10,12,12,14,14],"right_children":[2,4,6,8,10,12,14,16,18,20,22,-1,24,-1,26,-1,-1,-1,-1,-1,-1,-1,-1,-1,-1,-1,-1],"split_conditions":[2.5E0,5.77E1,1.624E2,1E-1,8E-1,1.085E2,2.8E0,1.6E0,1E-1,2.6E0,7.5E0,-5.3517785E-2,1.087E2,8.126591E-2,3.3E0,-1.9425097E-3,8.423878E-2,3.7270195E-3,-5.558875E-2,-3.9712444E-2,6.523276E-2,8.4827125E-2,9.492585E-3,6.674116E-2,-3.7627455E-2,1.8541299E-2,-4.8597805E-2],"split_indices":[2,3,3,1,0,3,0,0,0,1,1,0,3,0,1,0,0,0,0,0,0,0,0,0,0,0,0],"split_type":[0,0,0,0,0,0,0,0,0,0,0,0,0,0,0,0,0,0,0,0,0,0,0,0,0,0,0],"sum_hessian":[5.855457E2,3.8786703E2,1.9767867E2,7.7167725E1,3.106993E2,1.8487259E2,1.2806078E1,7.143697E0,7.0024025E1,1.6493062E2,1.4576869E2,9.20542E1,9.281839E1,4.826851E0,7.979227E0,1.3613594E0,5.7823377E0,3.6255548E0,6.6398476E1,8.3740166E1,8.119045E1,9.891765E1,4.6851048E1,1.3556856E0,9.146271E1,1.7901607E0,6.1890664E0],"tree_param":{"num_deleted":"0","num_feature":"5","num_nodes":"27","size_leaf_vector":"1"}},{"base_weights":[-6.329315E-3,7.650822E-1,-2.607693E-1,-5.660482E-2,1.0855073E0,-6.187473E-1,1.5155499E-1,1.1042114E0,-3.1219995E-2,-5.538544E-2,-4.4047433E-1,5.502565E-1,-5.3977823E-1,9.19398E-2,6.081157E-2,9.371291E-3,-4.399017E-2,-4.723628E-2,4.7988147E-2,-1.8951194E-2,-5.4289516E-2],"categories":[],"categories_nodes":[],"categories_segments":[],"categories_sizes":[],"default_left":[0,0,0,0,0,0,0,0,0,0,0,0,0,0,0,0,0,0,0,0,0],"id":10,"left_children":[1,3,5,-1,7,9,11,13,-1,-1,15,17,19,-1,-1,-1,-1,-1,-1,-1,-1],"loss_changes":[1.150346E2,6.9362335E1,6.514201E1,0E0,3.7372894E0,2.7915497E0,5.69693E1,9.633179E-1,0E0,0E0,4.4395475E0,7.759533E0,3.023058E0,0E0,0E0,0E0,0E0,0E0,0E0,0E0,0E0],"parents":[2147483647,0,0,1,1,2,2,4,4,5,5,6,6,7,7,10,10,11,11,12,12],"right_children":[2,4,6,-1,8,10,12,14,-1,-1,16,18,20,-1,-1,-1,-1,-1,-1,-1,-1],"split_conditions":[7.21E1,3.2E0,2.2E0,-5.660482E-2,1.37E1,7.1E0,1.03E1,2.6E0,-3.1219995E-2,-5.538544E-2,8.59E1,2.9E0,1.6E1,9.19398E-2,6.081157E-2,9.371291E-3,-4.399017E-2,-4.723628E-2,4.7988147E-2,-1.8951194E-2,-5.4289516E-2],"split_indices":[3,1,2,0,4,1,4,2,0,0,3,1,4,0,0,0,0,0,0,0,0],"split_type":[0,0,0,0,0,0,0,0,0,0,0,0,0,0,0,0,0,0,0,0,0],"sum_hessian":[5.8406366E2,1.4436642E2,4.3969724E2,2.5582685E1,1.1878374E2,2.3509138E2,2.0460583E2,1.1754569E2,1.2380445E0,1.6437338E2,7.0718E1,1.2989668E2,7.470916E1,1.0187125E2,1.5674446E1,1.1587399E1,5.9130604E1,4.957904E0,1.24938774E2,2.4332579E1,5.0376583E1],"tree_param":{"num_deleted":"0","num_feature":"5","num_nodes":"21","size_leaf_vector":"1"}},{"base_weights":[8.0467835E-3,5.6772256E-1,-6.180732E-1,2.8081912E-1,9.3556696E-1,-4.435929E-1,-5.2532773E-2,8.997198E-1,-6.2314004E-1,1.0026163E-1,8.772395E-2,-6.2324065E-1,6.0251844E-1,8.085047E-2,-1.2190195E-2,-5.386144E-2,5.2454732E-3,4.043663E-2,-4.7507784E-3,-5.300949E-2,-1.6677069E-2,-2.0694641E-2,8.28713E-2],"categories":[],"categories_nodes":[],"categories_segments":[],"categories_sizes":[],"default_left":[0,0,0,0,0,0,0,0,0,0,0,0,0,0,0,0,0,0,0,0,0,0,0],"id":11,"left_children":[1,3,5,7,9,11,-1,13,15,17,-1,19,21,-1,-1,-1,-1,-1,-1,-1,-1,-1,-1],"loss_changes":[2.0830069E2,3.2860596E1,1.5976486E0,1.0000931E2,1.8325882E1,1.0503571E1,0E0,1.2514313E1,2.5585957E0,1.5342506E0,0E0,6.2111664E-1,3.4056113E0,0E0,0E0,0E0,0E0,0E0,0E0,0E0,0E0,0E0,0E0],"parents":[2147483647,0,0,1,1,2,2,3,3,4,4,5,5,7,7,8,8,9,9,11,11,12,12],"right_children":[2,4,6,8,10,12,-1,14,16,18,-1,20,22,-1,-1,-1,-1,-1,-1,-1,-1,-1,-1],"split_conditions":[1.5E0,1.9E0,3E0,4.4E0,4.1E0,7.9E0,-5.2532773E-2,1.26E1,1.2E0,5.8E0,8.772395E-2,2.9E0,1.1E0,8.085047E-2,-1.2190195E-2,-5.386144E-2,5.2454732E-3,4.043663E-2,-4.7507784E-3,-5.300949E-2,-1.6677069E-2,-2.0694641E-2,8.28713E-2],"split_indices":[0,2,0,1,4,4,0,4,2,1,0,0,2,0,0,0,0,0,0,0,0,0,0],"split_type":[0,0,0,0,0,0,0,0,0,0,0,0,0,0,0,0,0,0,0,0,0,0,0],"sum_hessian":[5.9242303E2,3.1285852E2,2.795645E2,1.7675798E2,1.3610052E2,5.2892265E1,2.2667224E2,1.0492511E2,7.183287E1,2.2253645E1,1.1384688E2,4.548534E1,7.406925E0,9.495451E1,9.970596E0,6.698011E1,4.852763E0,5.677514E0,1.6576132E1,4.099577E1,4.489572E0,2.6144888E0,4.792436E0],"tree_param":{"num_deleted":"0","num_feature":"5","num_nodes":"23","size_leaf_vector":"1"}},{"base_weights":[-1.0786387E-2,2.70435E-1,-4.3647832E-1,-4.7607717E-1,4.4489995E-1,-5.2765584E-1,4.133625E-2,6.2959445E-1,-6.296305E-1,1.6554017E-1,7.654556E-1,8.806308E-2,-5.639959E-1,9.3052095E-1,-2.0646794E-1,-3.751383E-2,7.801171E-2,-1.8660149E-3,-5.39146E-2,-4.3385155E-2,6.563318E-2,7.732233E-2,8.465471E-3,-4.388523E-2,3.5629455E-2,-5.2576464E-2,-3.272114E-2,2.096053E-2,8.497171E-2,1.5157321E-2,-3.653779E-2],"categories":[],"categories_nodes":[],"categories_segments":[],"categories_sizes":[],"default_left":[0,0,0,0,0,0,0,0,0,0,0,0,0,0,0,0,0,0,0,0,0,0,0,0,0,0,0,0,0,0,0],"id":12,"left_children":[1,3,5,7,9,11,13,15,17,19,21,23,25,27,29,-1,-1,-1,-1,-1,-1,-1,-1,-1,-1,-1,-1,-1,-1,-1,-1],"loss_changes":[6.967327E1,4.586026E1,1.0108147E1,1.1751073E1,2.5360703E1,4.401474E0,8.571099E0,3.7428138E0,1.5750542E0,7.1533966E1,1.7440056E1,2.9066808E0,2.3861618E0,4.6696806E-1,3.1142921E0,0E0,0E0,0E0,0E0,0E0,0E0,0E0,0E0,0E0,0E0,0E0,0E0,0E0,0E0,0E0,0E0],"parents":[2147483647,0,0,1,1,2,2,3,3,4,4,5,5,6,6,7,7,8,8,9,9,10,10,11,11,12,12,13,13,14,14],"right_children":[2,4,6,8,10,12,14,16,18,20,22,24,26,28,30,-1,-1,-1,-1,-1,-1,-1,-1,-1,-1,-1,-1,-1,-1,-1,-1],"split_conditions":[1.6E0,5.77E1,1.409E2,1E-1,1E0,2.2E0,3E0,1E-1,1E-1,2.6E0,8.2E0,1E-1,1.085E2,1.413E2,2.8E0,-3.751383E-2,7.801171E-2,-1.8660149E-3,-5.39146E-2,-4.3385155E-2,6.563318E-2,7.732233E-2,8.465471E-3,-4.388523E-2,3.5629455E-2,-5.2576464E-2,-3.272114E-2,2.096053E-2,8.497171E-2,1.5157321E-2,-3.653779E-2],"split_indices":[2,3,3,1,0,1,2,0,0,1,1,1,3,3,0,0,0,0,0,0,0,0,0,0,0,0,0,0,0,0,0],"split_type":[0,0,0,0,0,0,0,0,0,0,0,0,0,0,0,0,0,0,0,0,0,0,0,0,0,0,0,0,0,0,0],"sum_hessian":[5.8001324E2,3.4949435E2,2.3051889E2,6.587884E1,2.836155E2,1.9349205E2,3.7026848E1,7.655403E0,5.8223434E1,1.523559E2,1.3125963E2,1.0704226E1,1.8278783E2,7.4694586E0,2.955739E1,1.7464315E0,5.908972E0,4.068571E0,5.4154865E1,7.329891E1,7.905699E1,1.0023906E2,3.102056E1,3.6555905E0,7.0486355E0,1.12117134E2,7.067069E1,1.7207036E0,5.748755E0,1.1540983E1,1.8016407E1],"tree_param":{"num_deleted":"0","num_feature":"5","num_nodes":"31","size_leaf_vector":"1"}},{"base_weights":[8.503182E-4,-4.8434708E-1,5.468336E-1,3.7796178E-1,-6.0900515E-1,-6.387991E-1,8.5958505E-1,-5.346992E-1,8.6078095E-1,-3.7628543E-1,-6.477494E-1,-6.685116E-1,1.3114879E-2,1.0404034E0,5.674791E-1,-5.2271407E-2,1.5012307E-2,7.9700306E-2,-3.8835146E-2,-4.4848043E-2,1.4457012E-3,-5.2648056E-2,-2.6825838E-2,-5.4688204E-2,-2.8748545E-3,2.69136E-2,8.362426E-2,7.000785E-2,2.7519276E-2],"categories":[],"categories_nodes":[],"categories_segments":[],"categories_sizes":[],"default_left":[0,0,0,0,0,0,0,0,0,0,0,0,0,0,0,0,0,0,0,0,0,0,0,0,0,0,0,0,0],"id":13,"left_children":[1,3,5,7,9,11,13,15,17,19,21,23,-1,25,27,-1,-1,-1,-1,-1,-1,-1,-1,-1,-1,-1,-1,-1,-1],"loss_changes":[1.5568097E2,3.3677933E1,1.0308354E2,1.805007E1,2.2109451E0,1.4998798E0,1.0988724E1,1.3596416E0,5.31476E0,3.007802E0,5.296097E-1,5.1389694E-1,0E0,1.1126709E-1,5.6127224E0,0E0,0E0,0E0,0E0,0E0,0E0,0E0,0E0,0E0,0E0,0E0,0E0,0E0,0E0],"parents":[2147483647,0,0,1,1,2,2,3,3,4,4,5,5,6,6,7,7,8,8,9,9,10,10,11,11,13,13,14,14],"right_children":[2,4,6,8,10,12,14,16,18,20,22,24,-1,26,28,-1,-1,-1,-1,-1,-1,-1,-1,-1,-1,-1,-1,-1,-1],"split_conditions":[2.8E0,7.21E1,3.6E0,4.5E0,8.85E1,1.581E2,9.91E1,2.4E0,5.7E0,6E-1,2.4E0,1.03E1,1.3114879E-2,3.9E0,2.8E0,-5.2271407E-2,1.5012307E-2,7.9700306E-2,-3.8835146E-2,-4.4848043E-2,1.4457012E-3,-5.2648056E-2,-2.6825838E-2,-5.4688204E-2,-2.8748545E-3,2.69136E-2,8.362426E-2,7.000785E-2,2.7519276E-2],"split_indices":[0,3,1,1,3,3,3,0,4,0,0,4,0,1,4,0,0,0,0,0,0,0,0,0,0,0,0,0,0],"split_type":[0,0,0,0,0,0,0,0,0,0,0,0,0,0,0,0,0,0,0,0,0,0,0,0,0,0,0,0,0],"sum_hessian":[5.856759E2,3.1015988E2,2.7551602E2,3.8917862E1,2.7124203E2,5.728971E1,2.1822632E2,1.342793E1,2.5489933E1,4.0241444E1,2.310006E2,5.5406113E1,1.8836017E0,1.3320717E2,8.501915E1,1.1614895E1,1.8130349E0,2.3395552E1,2.0943806E0,2.713669E1,1.3104753E1,2.2252162E2,8.47897E0,5.4036335E1,1.3697741E0,1.4022238E0,1.3180495E2,3.4548874E1,5.0470272E1],"tree_param":{"num_deleted":"0","num_feature":"5","num_nodes":"29","size_leaf_vector":"1"}},{"base_weights":[-7.7243857E-3,-2.0977685E-1,7.448003E-1,2.293586E-1,-4.8275605E-1,-3.9150354E-2,9.5603067E-1,-1.0336624E-1,3.325521E-1,-6.61561E-1,-2.9858E-1,8.134084E-1,-5.243396E-1,6.0607144E-3,9.756651E-1,2.307512E-2,-2.7646976E-2,4.5985498E-2,3.5508052E-3,-5.5064175E-2,-3.2917526E-2,-3.374319E-2,-1.5652677E-3,7.9967186E-2,1.831087E-2,-5.468003E-2,2.1820623E-2,5.9062995E-2,8.1014685E-2],"categories":[],"categories_nodes":[],"categories_segments":[],"categories_sizes":[],"default_left":[0,0,0,0,0,0,0,0,0,0,0,0,0,0,0,0,0,0,0,0,0,0,0,0,0,0,0,0,0],"id":14,"left_children":[1,3,5,7,9,11,13,15,17,19,21,23,25,-1,27,-1,-1,-1,-1,-1,-1,-1,-1,-1,-1,-1,-1,-1,-1],"loss_changes":[8.746491E1,5.446805E1,2.0200432E1,6.0259047E0,9.021637E0,1.1514424E1,1.5845642E0,4.092471E0,9.289655E0,6.6124725E-1,4.795143E0,8.7187195E-1,2.4308357E0,0E0,7.6416016E-2,0E0,0E0,0E0,0E0,0E0,0E0,0E0,0E0,0E0,0E0,0E0,0E0,0E0,0E0],"parents":[2147483647,0,0,1,1,2,2,3,3,4,4,5,5,6,6,7,7,8,8,9,9,10,10,11,11,12,12,14,14],"right_children":[2,4,6,8,10,12,14,16,18,20,22,24,26,-1,28,-1,-1,-1,-1,-1,-1,-1,-1,-1,-1,-1,-1,-1,-1],"split_conditions":[1.03E1,4.4E0,1.9E0,8.76E1,1.4E0,5E-1,7.55E1,1E-1,2E-1,1.31E2,5.7E0,1.29E1,1.89E1,6.0607144E-3,1.38E1,2.307512E-2,-2.7646976E-2,4.5985498E-2,3.5508052E-3,-5.5064175E-2,-3.2917526E-2,-3.374319E-2,-1.5652677E-3,7.9967186E-2,1.831087E-2,-5.468003E-2,2.1820623E-2,5.9062995E-2,8.1014685E-2],"split_indices":[4,1,2,3,2,1,3,4,1,3,4,4,4,0,4,0,0,0,0,0,0,0,0,0,0,0,0,0,0],"split_type":[0,0,0,0,0,0,0,0,0,0,0,0,0,0,0,0,0,0,0,0,0,0,0,0,0,0,0,0,0],"sum_hessian":[5.732122E2,4.524507E2,1.2076153E2,1.735019E2,2.7894882E2,2.580493E1,9.49566E1,4.1072136E1,1.3242978E2,1.4022304E2,1.3872577E2,9.113866E0,1.6691065E1,2.177797E0,9.27788E1,1.5618146E1,2.5453989E1,7.1404305E1,6.102548E1,1.2509501E2,1.5128028E1,9.58761E1,4.284967E1,6.3736444E0,2.7402215E0,1.4031776E1,2.6592884E0,1.5342182E1,7.7436615E1],"tree_param":{"num_deleted":"0","num_feature":"5","num_nodes":"29","size_leaf_vector":"1"}},{"base_weights":[1.5848351E-3,2.4506103E-1,-4.9731636E-1,-2.5839838E-1,4.601092E-1,-5.452289E-1,1.9164766E-1,6.837407E-1,-6.0570097E-1,9.971752E-3,6.6978437E-1,-1.0235415E-1,-5.666884E-1,-2.1277043E-1,7.264006E-2,6.442252E-2,-5.9763715E-3,-5.0117433E-2,3.2761287E-2,3.3987265E-2,-1.7555827E-2,5.9711825E-2,2.2271663E-2,-4.6181813E-2,5.544755E-2,-5.2750118E-2,-4.0317398E-2,3.3113614E-2,-2.9840138E-2],"categories":[],"categories_nodes":[],"categories_segments":[],"categories_sizes":[],"default_left":[0,0,0,0,0,0,0,0,0,0,0,0,0,0,0,0,0,0,0,0,0,0,0,0,0,0,0,0,0],"id":15,"left_children":[1,3,5,7,9,11,13,15,17,19,21,23,25,27,-1,-1,-1,-1,-1,-1,-1,-1,-1,-1,-1,-1,-1,-1,-1],"loss_changes":[7.066187E1,4.244412E1,6.402363E0,3.8908485E1,2.5881054E1,1.639782E0,4.0014086E0,3.0244274E0,2.0799847E0,8.485869E0,5.4027557E0,3.9800632E0,6.569519E-1,1.0794181E0,0E0,0E0,0E0,0E0,0E0,0E0,0E0,0E0,0E0,0E0,0E0,0E0,0E0,0E0,0E0],"parents":[2147483647,0,0,1,1,2,2,3,3,4,4,5,5,6,6,7,7,8,8,9,9,10,10,11,11,12,12,13,13],"right_children":[2,4,6,8,10,12,14,16,18,20,22,24,26,28,-1,-1,-1,-1,-1,-1,-1,-1,-1,-1,-1,-1,-1,-1,-1],"split_conditions":[2.5E0,7.55E1,1.624E2,2.3E0,2E-1,2.5E0,8.6E0,1E-1,1.36E1,1.035E2,1.2E0,1.2E0,9.91E1,3.3E0,7.264006E-2,6.442252E-2,-5.9763715E-3,-5.0117433E-2,3.2761287E-2,3.3987265E-2,-1.7555827E-2,5.9711825E-2,2.2271663E-2,-4.6181813E-2,5.544755E-2,-5.2750118E-2,-4.0317398E-2,3.3113614E-2,-2.9840138E-2],"split_indices":[2,3,3,1,1,1,1,2,4,3,2,1,3,1,0,0,0,0,0,0,0,0,0,0,0,0,0,0,0],"split_type":[0,0,0,0,0,0,0,0,0,0,0,0,0,0,0,0,0,0,0,0,0,0,0,0,0,0,0,0,0],"sum_hessian":[5.797168E2,3.8993005E2,1.8978676E2,1.1664512E2,2.7328494E2,1.7764168E2,1.2145085E1,3.1156672E1,8.548844E1,8.7177345E1,1.861076E2,8.476475E0,1.691652E2,8.211982E0,3.9331038E0,2.6800192E1,4.356481E0,8.415002E1,1.3384235E0,3.0738972E1,5.6438377E1,1.548826E2,3.1224995E1,5.479342E0,2.9971333E0,6.44335E1,1.047317E2,1.3497242E0,6.862257E0],"tree_param":{"num_deleted":"0","num_feature":"5","num_nodes":"29","size_leaf_vector":"1"}},{"base_weights":[-7.588254E-3,-4.5852742E-1,5.220182E-1,4.4663462E-1,-5.975525E-1,-6.1460817E-1,8.04976E-1,-5.044988E-2,7.801954E-1,-3.14125E-1,-5.161284E-2,-6.46347E-1,1.2220535E-2,9.62537E-1,5.532019E-1,7.044033E-2,-3.7598718E-2,-4.3574795E-2,1.0551644E-2,-6.998281E-4,-5.3067382E-2,1.3911303E-2,7.7803925E-2,6.5314405E-2,2.7641196E-2],"categories":[],"categories_nodes":[],"categories_segments":[],"categories_sizes":[],"default_left":[0,0,0,0,0,0,0,0,0,0,0,0,0,0,0,0,0,0,0,0,0,0,0,0,0],"id":16,"left_children":[1,3,5,7,9,11,13,-1,15,17,-1,19,-1,21,23,-1,-1,-1,-1,-1,-1,-1,-1,-1,-1],"loss_changes":[1.3551505E2,3.883326E1,8.44247E1,1.5359827E1,3.387848E0,1.3794117E0,7.7735443E0,0E0,4.431856E0,4.2075768E0,0E0,5.4343605E-1,0E0,8.371048E-1,4.252466E0,0E0,0E0,0E0,0E0,0E0,0E0,0E0,0E0,0E0,0E0],"parents":[2147483647,0,0,1,1,2,2,3,3,4,4,5,5,6,6,8,8,9,9,11,11,13,13,14,14],"right_children":[2,4,6,8,10,12,14,-1,16,18,-1,20,-1,22,24,-1,-1,-1,-1,-1,-1,-1,-1,-1,-1],"split_conditions":[3E0,7.21E1,3.6E0,3.2E0,8.85E1,1.684E2,9.91E1,-5.044988E-2,6.5E0,6E-1,-5.161284E-2,3.57E1,1.2220535E-2,3.9E0,2.8E0,7.044033E-2,-3.7598718E-2,-4.3574795E-2,1.0551644E-2,-6.998281E-4,-5.3067382E-2,1.3911303E-2,7.7803925E-2,6.5314405E-2,2.7641196E-2],"split_indices":[0,3,1,1,3,3,3,0,4,0,0,3,0,1,4,0,0,0,0,0,0,0,0,0,0],"split_type":[0,0,0,0,0,0,0,0,0,0,0,0,0,0,0,0,0,0,0,0,0,0,0,0,0],"sum_hessian":[5.6543304E2,3.0547083E2,2.5996222E2,4.037638E1,2.6509442E2,5.158319E1,2.0837904E2,9.335652E0,3.104073E1,3.9217392E1,2.2587704E2,4.968585E1,1.897342E0,1.264335E2,8.194553E1,2.9008886E1,2.0318446E0,2.570736E1,1.3510033E1,1.3293221E0,4.8356525E1,1.8152494E0,1.2461825E2,3.484763E1,4.7097904E1],"tree_param":{"num_deleted":"0","num_feature":"5","num_nodes":"25","size_leaf_vector":"1"}},{"base_weights":[6.4457785E-3,-1.8838683E-1,6.704023E-1,2.3960899E-1,-4.6153593E-1,-1.9757849E-1,8.1036663E-1,3.7749037E-2,3.7376755E-1,-6.445098E-1,-2.760863E-1,7.456039E-2,-5.3313825E-2,4.6192276E-1,7.320089E-2,-7.304256E-3,3.7401095E-2,4.10994E-2,-3.185409E-2,-5.3804744E-2,-2.978699E-2,-3.6143072E-2,-4.010599E-3,4.470274E-2,-3.903672E-2],"categories":[],"categories_nodes":[],"categories_segments":[],"categories_sizes":[],"default_left":[0,0,0,0,0,0,0,0,0,0,0,0,0,0,0,0,0,0,0,0,0,0,0,0,0],"id":17,"left_children":[1,3,5,7,9,11,13,15,17,19,21,-1,-1,23,-1,-1,-1,-1,-1,-1,-1,-1,-1,-1,-1],"loss_changes":[7.365564E1,5.1576843E1,1.5852905E1,4.6482677E0,8.95229E0,1.0546383E1,3.6404495E0,3.9167075E0,1.1367792E1,7.778473E-1,5.352047E0,0E0,0E0,2.8263798E0,0E0,0E0,0E0,0E0,0E0,0E0,0E0,0E0,0E0,0E0,0E0],"parents":[2147483647,0,0,1,1,2,2,3,3,4,4,5,5,6,6,7,7,8,8,9,9,10,10,13,13],"right_children":[2,4,6,8,10,12,14,16,18,20,22,-1,-1,24,-1,-1,-1,-1,-1,-1,-1,-1,-1,-1,-1],"split_conditions":[1.03E1,4.4E0,1E-1,1.035E2,1.4E0,5E-1,1.43E1,1.6E0,8E-1,1.31E2,3.9E0,7.456039E-2,-5.3313825E-2,1.285E2,7.320089E-2,-7.304256E-3,3.7401095E-2,4.10994E-2,-3.185409E-2,-5.3804744E-2,-2.978699E-2,-3.6143072E-2,-4.010599E-3,4.470274E-2,-3.903672E-2],"split_indices":[4,1,2,3,2,1,4,1,2,3,4,0,0,3,0,0,0,0,0,0,0,0,0,0,0],"split_type":[0,0,0,0,0,0,0,0,0,0,0,0,0,0,0,0,0,0,0,0,0,0,0,0,0],"sum_hessian":[5.674069E2,4.3923367E2,1.2817326E2,1.7116266E2,2.68071E2,1.7741117E1,1.10432144E2,6.884991E1,1.0231275E2,1.336902E2,1.3438083E2,4.913993E0,1.2827125E1,2.6755667E1,8.367648E1,5.3555496E1,1.5294406E1,8.6891396E1,1.5421358E1,1.19866E2,1.3824203E1,7.503443E1,5.9346397E1,2.4653435E1,2.1022315E0],"tree_param":{"num_deleted":"0","num_feature":"5","num_nodes":"25","size_leaf_vector":"1"}},{"base_weights":[1.1899784E-2,2.4841405E-1,-4.7577468E-1,-2.519905E-1,4.6210092E-1,-5.265676E-1,1.9018203E-1,6.438602E-1,-5.9069943E-1,5.2531023E-2,6.571159E-1,-3.5943258E-1,-6.1098844E-1,-2.1050662E-1,6.291852E-2,6.221406E-2,-2.6114183E-3,-4.888598E-2,1.9677915E-2,3.8501572E-2,-1.4821722E-2,5.8818445E-2,2.1300115E-2,-3.4872033E-2,7.933359E-3,-3.575732E-2,-5.1289916E-2,3.4798803E-3,-4.2056497E-2],"categories":[],"categories_nodes":[],"categories_segments":[],"categories_sizes":[],"default_left":[0,0,0,0,0,0,0,0,0,0,0,0,0,0,0,0,0,0,0,0,0,0,0,0,0,0,0,0,0],"id":18,"left_children":[1,3,5,7,9,11,13,15,17,19,21,23,25,27,-1,-1,-1,-1,-1,-1,-1,-1,-1,-1,-1,-1,-1,-1,-1],"loss_changes":[6.606841E1,4.13591E1,6.4283485E0,3.5598114E1,2.1581596E1,2.2367363E0,3.508752E0,2.9513435E0,1.5949593E0,9.100212E0,5.3993073E0,2.177206E0,2.7809525E-1,7.560526E-1,0E0,0E0,0E0,0E0,0E0,0E0,0E0,0E0,0E0,0E0,0E0,0E0,0E0,0E0,0E0],"parents":[2147483647,0,0,1,1,2,2,3,3,4,4,5,5,6,6,7,7,8,8,9,9,10,10,11,11,12,12,13,13],"right_children":[2,4,6,8,10,12,14,16,18,20,22,24,26,28,-1,-1,-1,-1,-1,-1,-1,-1,-1,-1,-1,-1,-1,-1,-1],"split_conditions":[2.5E0,7.55E1,1.624E2,2.3E0,2E-1,7.2E0,7.9E0,1E-1,1.36E1,1.035E2,1.2E0,6.7E0,1.6E0,2.3E0,6.291852E-2,6.221406E-2,-2.6114183E-3,-4.888598E-2,1.9677915E-2,3.8501572E-2,-1.4821722E-2,5.8818445E-2,2.1300115E-2,-3.4872033E-2,7.933359E-3,-3.575732E-2,-5.1289916E-2,3.4798803E-3,-4.2056497E-2],"split_indices":[2,3,3,1,1,1,1,2,4,3,2,1,4,4,0,0,0,0,0,0,0,0,0,0,0,0,0,0,0],"split_type":[0,0,0,0,0,0,0,0,0,0,0,0,0,0,0,0,0,0,0,0,0,0,0,0,0,0,0,0,0],"sum_hessian":[5.707799E2,3.8469812E2,1.8608179E2,1.1506459E2,2.6963354E2,1.7308946E2,1.2992326E1,3.1321495E1,8.3743095E1,8.738247E1,1.8225107E2,5.985238E1,1.1323709E2,8.1576805E0,4.834646E0,2.6024223E1,5.2972717E0,8.2015434E1,1.7276633E0,3.0810259E1,5.657221E1,1.5116046E2,3.1090618E1,5.1341145E1,8.511234E0,2.003302E1,9.320407E1,4.9946856E0,3.1629946E0],"tree_param":{"num_deleted":"0","num_feature":"5","num_nodes":"29","size_leaf_vector":"1"}},{"base_weights":[-5.11156E-3,-4.2766905E-1,5.0079024E-1,-5.567127E-1,-1.4612393E-1,-5.969818E-1,7.6338476E-1,-5.0666206E-2,-3.5209867E-1,-5.1074225E-2,2.1386435E-2,-6.297708E-1,1.2005387E-2,2.4546072E-1,8.079556E-1,-1.05304085E-2,-5.0483465E-2,2.6159141E-2,-2.9692769E-2,-5.184257E-2,2.5154962E-3,7.225818E-2,-2.116333E-2,5.433329E-2,7.185925E-2],"categories":[],"categories_nodes":[],"categories_segments":[],"categories_sizes":[],"default_left":[0,0,0,0,0,0,0,0,0,0,0,0,0,0,0,0,0,0,0,0,0,0,0,0,0],"id":19,"left_children":[1,3,5,7,9,11,13,-1,15,-1,17,19,-1,21,23,-1,-1,-1,-1,-1,-1,-1,-1,-1,-1],"loss_changes":[1.19757164E2,1.1008556E1,7.395416E1,3.0526352E0,8.036772E0,1.3138123E0,4.561386E0,0E0,3.556201E0,0E0,8.945627E0,5.984726E-1,0E0,6.201515E0,1.5923843E0,0E0,0E0,0E0,0E0,0E0,0E0,0E0,0E0,0E0,0E0],"parents":[2147483647,0,0,1,1,2,2,3,3,4,4,5,5,6,6,8,8,10,10,11,11,13,13,14,14],"right_children":[2,4,6,8,10,12,14,-1,16,-1,18,20,-1,22,24,-1,-1,-1,-1,-1,-1,-1,-1,-1,-1],"split_conditions":[3E0,5E-1,3.6E0,9.9E0,2.9E0,2.4E0,4.8E0,-5.0666206E-2,3.3E0,-5.1074225E-2,1.9E0,9.2E0,1.2005387E-2,1E-1,1.6E0,-1.05304085E-2,-5.0483465E-2,2.6159141E-2,-2.9692769E-2,-5.184257E-2,2.5154962E-3,7.225818E-2,-2.116333E-2,5.433329E-2,7.185925E-2],"split_indices":[0,0,1,1,1,2,1,0,4,0,2,4,0,4,2,0,0,0,0,0,0,0,0,0,0],"split_type":[0,0,0,0,0,0,0,0,0,0,0,0,0,0,0,0,0,0,0,0,0,0,0,0,0],"sum_hessian":[5.582063E2,3.0424146E2,2.5396484E2,2.0795146E2,9.629E1,4.8777576E1,2.0518727E2,1.49775E2,5.8176464E1,2.3731915E1,7.255809E1,4.6877064E1,1.9005114E0,1.677419E1,1.8841307E2,3.3316273E1,2.486019E1,4.0890915E1,3.1667171E1,4.5636616E1,1.2404484E0,6.989099E0,9.785092E0,8.116113E1,1.0725194E2],"tree_param":{"num_deleted":"0","num_feature":"5","num_nodes":"25","size_leaf_vector":"1"}},{"base_weights":[-7.0105763E-3,4.860228E-1,-5.869378E-1,7.538756E-1,1.938381E-1,-6.111226E-1,-2.9057923E-1,8.142682E-1,2.8740472E-1,-5.0054306E-1,7.5479937E-1,-1.8921809E-1,-6.17597E-1,5.327419E-1,-5.1223163E-2,7.8758486E-2,4.673882E-2,-4.3101776E-2,5.4103654E-2,-4.241531E-2,-2.138774E-3,2.3082972E-2,7.207724E-2,-4.0179685E-2,3.054918E-2,-4.96747E-2,-2.4454352E-2,6.760094E-2,8.232272E-3],"categories":[],"categories_nodes":[],"categories_segments":[],"categories_sizes":[],"default_left":[0,0,0,0,0,0,0,0,0,0,0,0,0,0,0,0,0,0,0,0,0,0,0,0,0,0,0,0,0],"id":20,"left_children":[1,3,5,7,9,11,13,15,17,19,21,23,25,27,-1,-1,-1,-1,-1,-1,-1,-1,-1,-1,-1,-1,-1,-1,-1],"loss_changes":[1.639616E2,2.4111404E1,1.7110062E0,4.311775E0,5.8645615E1,5.461197E-1,6.614174E0,4.9973373E0,6.803697E0,9.3328285E-1,5.4063225E0,1.1052715E0,5.8525085E-2,8.581505E-1,0E0,0E0,0E0,0E0,0E0,0E0,0E0,0E0,0E0,0E0,0E0,0E0,0E0,0E0,0E0],"parents":[2147483647,0,0,1,1,2,2,3,3,4,4,5,5,6,6,7,7,8,8,9,9,10,10,11,11,12,12,13,13],"right_children":[2,4,6,8,10,12,14,16,18,20,22,24,26,28,-1,-1,-1,-1,-1,-1,-1,-1,-1,-1,-1,-1,-1,-1,-1],"split_conditions":[1.5E0,6.2E0,9.8E0,3E-1,4.7E0,1.6E0,2.6E0,7.4E0,1.107E2,3.9E0,9.7E0,8.2E0,1.918E2,1.23E1,-5.1223163E-2,7.8758486E-2,4.673882E-2,-4.3101776E-2,5.4103654E-2,-4.241531E-2,-2.138774E-3,2.3082972E-2,7.207724E-2,-4.0179685E-2,3.054918E-2,-4.96747E-2,-2.4454352E-2,6.760094E-2,8.232272E-3],"split_indices":[0,1,4,0,4,0,0,4,3,4,4,1,3,4,0,0,0,0,0,0,0,0,0,0,0,0,0,0,0],"split_type":[0,0,0,0,0,0,0,0,0,0,0,0,0,0,0,0,0,0,0,0,0,0,0,0,0,0,0,0,0],"sum_hessian":[5.7144806E2,3.0895093E2,2.6249713E2,1.6036256E2,1.4858838E2,2.417099E2,2.0787231E1,1.4132063E2,1.9041935E1,6.6446205E1,8.214217E1,4.1099586E0,2.3759993E2,6.041167E0,1.4746065E1,7.9336105E1,6.1984524E1,5.9711523E0,1.3070783E1,6.2421234E1,4.024975E0,2.0314383E1,6.182779E1,2.732648E0,1.377311E0,2.3410489E2,3.4950428E0,2.9396684E0,3.1014984E0],"tree_param":{"num_deleted":"0","num_feature":"5","num_nodes":"29","size_leaf_vector":"1"}},{"base_weights":[-2.507444E-3,2.464151E-1,-3.9514285E-1,-4.292484E-1,4.0139374E-1,-5.964141E-1,-2.1330118E-1,-5.1208645E-1,-1.5271893E-1,1.7577954E-1,7.2437435E-1,-5.0249297E-2,-4.596623E-1,3.5508236E-1,-3.527994E-1,-4.7553662E-2,-3.4790218E-2,-4.6403944E-2,3.0304579E-2,2.2365203E-2,-2.6343023E-2,1.9446995E-2,6.897656E-2,4.44858E-2,-4.3119073E-2,6.176501E-2,-4.8201904E-2,-1.1690668E-2,-4.5716204E-2],"categories":[],"categories_nodes":[],"categories_segments":[],"categories_sizes":[],"default_left":[0,0,0,0,0,0,0,0,0,0,0,0,0,0,0,0,0,0,0,0,0,0,0,0,0,0,0,0,0],"id":21,"left_children":[1,3,5,7,9,11,13,15,17,19,21,-1,23,25,27,-1,-1,-1,-1,-1,-1,-1,-1,-1,-1,-1,-1,-1,-1],"loss_changes":[5.4902695E1,3.61724E1,7.849762E0,1.4022331E0,2.0288284E1,1.5735626E-1,9.327507E0,5.4929733E-2,3.9271407E0,8.807573E0,7.412628E0,0E0,2.1603932E0,9.796776E0,4.150193E0,0E0,0E0,0E0,0E0,0E0,0E0,0E0,0E0,0E0,0E0,0E0,0E0,0E0,0E0],"parents":[2147483647,0,0,1,1,2,2,3,3,4,4,5,5,6,6,7,7,8,8,9,9,10,10,12,12,13,13,14,14],"right_children":[2,4,6,8,10,12,14,16,18,20,22,-1,24,26,28,-1,-1,-1,-1,-1,-1,-1,-1,-1,-1,-1,-1,-1,-1],"split_conditions":[1.6E0,5.77E1,1.085E2,6.2E0,1.8E0,9.91E1,3E0,5E-1,4.53E1,1.311E2,7.69E1,-5.0249297E-2,9.93E1,1.43E1,7.9E0,-4.7553662E-2,-3.4790218E-2,-4.6403944E-2,3.0304579E-2,2.2365203E-2,-2.6343023E-2,1.9446995E-2,6.897656E-2,4.44858E-2,-4.3119073E-2,6.176501E-2,-4.8201904E-2,-1.1690668E-2,-4.5716204E-2],"split_indices":[2,3,3,4,0,3,2,4,3,3,3,0,3,4,4,0,0,0,0,0,0,0,0,0,0,0,0,0,0],"split_type":[0,0,0,0,0,0,0,0,0,0,0,0,0,0,0,0,0,0,0,0,0,0,0,0,0,0,0,0,0],"sum_hessian":[5.5974976E2,3.4279645E2,2.169533E2,6.3627716E1,2.7916873E2,1.0189314E2,1.1506015E2,4.8305367E1,1.5322347E1,1.6526743E2,1.1390132E2,7.980046E1,2.2092682E1,2.2369698E1,9.269045E1,2.0134897E1,2.8170471E1,8.443082E0,6.8792644E0,1.3746619E2,2.7801231E1,2.5972757E1,8.792856E1,1.1650313E0,2.092765E1,1.5718839E1,6.650859E0,4.850909E1,4.418136E1],"tree_param":{"num_deleted":"0","num_feature":"5","num_nodes":"29","size_leaf_vector":"1"}},{"base_weights":[-1.5008255E-3,-5.724127E-1,2.3604779E-1,-6.261217E-1,-1.9359882E-1,8.1158465E-1,-4.198606E-2,1.2585217E-3,-5.0560586E-2,-3.5756564E-1,6.1175775E-2,8.8119906E-1,3.7048018E-1,-4.6686232E-1,1.8393594E-1,4.8966426E-2,-3.796224E-2,7.144405E-2,3.72996E-2,-3.997925E-2,3.931991E-2,-9.141077E-3,-4.9942452E-2,3.9887488E-2,-3.7308846E-2],"categories":[],"categories_nodes":[],"categories_segments":[],"categories_sizes":[],"default_left":[0,0,0,0,0,0,0,0,0,0,0,0,0,0,0,0,0,0,0,0,0,0,0,0,0],"id":22,"left_children":[1,3,5,7,9,11,13,-1,-1,15,-1,17,19,21,23,-1,-1,-1,-1,-1,-1,-1,-1,-1,-1],"loss_changes":[7.504317E1,3.186699E0,6.256223E1,5.4618835E-1,3.673191E0,3.5834808E0,2.5467758E1,0E0,0E0,2.4630806E0,0E0,1.2088776E-1,2.2551355E0,5.0394363E0,3.5703217E1,0E0,0E0,0E0,0E0,0E0,0E0,0E0,0E0,0E0,0E0],"parents":[2147483647,0,0,1,1,2,2,3,3,4,4,5,5,6,6,9,9,11,11,12,12,13,13,14,14],"right_children":[2,4,6,8,10,12,14,-1,-1,16,-1,18,20,22,24,-1,-1,-1,-1,-1,-1,-1,-1,-1,-1],"split_conditions":[4E0,3.2E0,7.55E1,3.47E1,1.587E2,2.6E0,2.3E0,1.2585217E-3,-5.0560586E-2,4.04E1,6.1175775E-2,7.21E1,5.8E0,9.91E1,1.03E1,4.8966426E-2,-3.796224E-2,7.144405E-2,3.72996E-2,-3.997925E-2,3.931991E-2,-9.141077E-3,-4.9942452E-2,3.9887488E-2,-3.7308846E-2],"split_indices":[1,1,3,3,3,2,2,0,0,3,0,3,1,3,4,0,0,0,0,0,0,0,0,0,0],"split_type":[0,0,0,0,0,0,0,0,0,0,0,0,0,0,0,0,0,0,0,0,0,0,0,0,0],"sum_hessian":[5.513405E2,1.6158527E2,3.8975522E2,1.4094847E2,2.0636791E1,1.2633001E2,2.6342523E2,1.2655268E0,1.3968294E2,1.8156963E1,2.479828E0,1.08248665E2,1.8081343E1,9.107678E1,1.7234843E2,1.4987587E0,1.6658205E1,1.0412263E2,4.126037E0,1.8254505E0,1.6255892E1,2.8643818E1,6.243297E1,1.16305305E2,5.6043125E1],"tree_param":{"num_deleted":"0","num_feature":"5","num_nodes":"25","size_leaf_vector":"1"}},{"base_weights":[-3.5157315E-3,-1.4547984E-1,7.3981506E-1,2.2308333E-1,-3.9292136E-1,-4.5775038E-1,6.5517016E-2,-7.357277E-2,3.1014565E-1,-6.173007E-1,-1.5230833E-1,-4.609212E-2,-1.2041706E-3,2.1124754E-2,-2.1708958E-2,3.613535E-2,6.7037484E-3,-5.079244E-2,-3.4325324E-2,-2.4774726E-2,2.3873655E-2],"categories":[],"categories_nodes":[],"categories_segments":[],"categories_sizes":[],"default_left":[0,0,0,0,0,0,0,0,0,0,0,0,0,0,0,0,0,0,0,0,0],"id":23,"left_children":[1,3,5,7,9,11,-1,13,15,17,19,-1,-1,-1,-1,-1,-1,-1,-1,-1,-1],"loss_changes":[5.866039E1,4.2651768E1,8.824093E0,4.881365E0,1.50016365E1,3.146094E-1,0E0,2.9759068E0,4.627801E0,2.0595932E-1,9.757212E0,0E0,0E0,0E0,0E0,0E0,0E0,0E0,0E0,0E0,0E0],"parents":[2147483647,0,0,1,1,2,2,3,3,4,4,5,5,7,7,8,8,9,9,10,10],"right_children":[2,4,6,8,10,12,-1,14,16,18,20,-1,-1,-1,-1,-1,-1,-1,-1,-1,-1],"split_conditions":[1.43E1,4.4E0,1E-1,8.76E1,1.8E0,9.64E1,6.5517016E-2,1E-1,7E-1,1.31E2,7.9E0,-4.609212E-2,-1.2041706E-3,2.1124754E-2,-2.1708958E-2,3.613535E-2,6.7037484E-3,-5.079244E-2,-3.4325324E-2,-2.4774726E-2,2.3873655E-2],"split_indices":[4,1,2,3,2,3,0,4,1,3,4,0,0,0,0,0,0,0,0,0,0],"split_type":[0,0,0,0,0,0,0,0,0,0,0,0,0,0,0,0,0,0,0,0,0],"sum_hessian":[5.538642E2,4.6572293E2,8.814124E1,1.8711472E2,2.7860822E2,5.167621E0,8.297362E1,4.2489834E1,1.4462488E2,1.4335736E2,1.3525087E2,3.8393261E0,1.3282948E0,1.5572331E1,2.69175E1,8.836848E1,5.6256405E1,1.289264E2,1.4430956E1,1.0048027E2,3.477059E1],"tree_param":{"num_deleted":"0","num_feature":"5","num_nodes":"21","size_leaf_vector":"1"}},{"base_weights":[6.3840505E-3,-4.316801E-1,7.547684E-2,4.9914208E-1,-5.8919257E-1,1.8349922E-1,-3.484475E-1,-4.19393E-2,6.7962304E-2,-6.156916E-1,3.1593148E-2,4.823845E-4,2.7807406E-1,7.1269706E-2,-5.892153E-1,-5.037943E-2,-1.1998148E-2,3.6465097E-2,-1.8625405E-2,-6.9525547E-4,2.8809965E-2,5.0523665E-2,-1.9101035E-2,-1.3274653E-2,-4.827091E-2],"categories":[],"categories_nodes":[],"categories_segments":[],"categories_sizes":[],"default_left":[0,0,0,0,0,0,0,0,0,0,0,0,0,0,0,0,0,0,0,0,0,0,0,0,0],"id":24,"left_children":[1,3,5,7,9,11,13,-1,-1,15,-1,17,19,21,23,-1,-1,-1,-1,-1,-1,-1,-1,-1,-1],"loss_changes":[1.6869347E1,1.1427089E1,2.2106106E1,4.580143E0,1.9486923E0,6.6507607E0,9.954487E0,0E0,0E0,3.2487106E-1,0E0,1.4119255E1,5.963894E0,6.51691E0,2.744255E-1,0E0,0E0,0E0,0E0,0E0,0E0,0E0,0E0,0E0,0E0],"parents":[2147483647,0,0,1,1,2,2,3,3,4,4,5,5,6,6,9,9,11,11,12,12,13,13,14,14],"right_children":[2,4,6,8,10,12,14,-1,-1,16,-1,18,20,22,24,-1,-1,-1,-1,-1,-1,-1,-1,-1,-1],"split_conditions":[5.77E1,1E-1,1.01E1,1E-1,1.17E1,9.69E1,5E0,-4.19393E-2,6.7962304E-2,9.8E0,3.1593148E-2,1.6E0,3E-1,1.119E2,1.03E1,-5.037943E-2,-1.1998148E-2,3.6465097E-2,-1.8625405E-2,-6.9525547E-4,2.8809965E-2,5.0523665E-2,-1.9101035E-2,-1.3274653E-2,-4.827091E-2],"split_indices":[3,1,4,0,4,3,1,0,0,4,0,1,1,3,4,0,0,0,0,0,0,0,0,0,0],"split_type":[0,0,0,0,0,0,0,0,0,0,0,0,0,0,0,0,0,0,0,0,0,0,0,0,0],"sum_hessian":[5.5527325E2,7.4933E1,4.8034024E2,1.0530997E1,6.4402E1,3.8324957E2,9.709068E1,2.5594294E0,7.971568E0,6.307787E1,1.3241334E0,1.3091467E2,2.523349E2,3.564927E1,6.1441418E1,6.088857E1,2.1892993E0,4.4029182E1,8.688549E1,5.6335968E1,1.9599893E2,1.2330019E1,2.331925E1,2.4020815E0,5.9039333E1],"tree_param":{"num_deleted":"0","num_feature":"5","num_nodes":"25","size_leaf_vector":"1"}},{"base_weights":[-7.6781046E-3,-4.2268398E-1,4.7209576E-1,-2.429558E-1,-6.0032713E-1,-6.112597E-1,7.055692E-1,-5.919059E-1,-3.7232783E-2,-4.9058735E-2,-2.7663115E-1,-5.0257266E-2,-2.3550838E-3,3.2808506E-1,7.7352536E-1,-4.863078E-2,-2.4016155E-3,-1.6288038E-2,2.6680112E-2,2.3892254E-2,-4.6772055E-2,6.944147E-2,3.5998854E-3,5.347883E-2,6.6873685E-2],"categories":[],"categories_nodes":[],"categories_segments":[],"categories_sizes":[],"default_left":[0,0,0,0,0,0,0,0,0,0,0,0,0,0,0,0,0,0,0,0,0,0,0,0,0],"id":25,"left_children":[1,3,5,7,9,11,13,15,17,-1,19,-1,-1,21,23,-1,-1,-1,-1,-1,-1,-1,-1,-1,-1],"loss_changes":[1.0820674E2,9.157383E0,6.418758E1,1.0496418E1,4.3976974E-1,4.276924E-1,5.0777817E0,4.690647E-1,5.819155E0,0E0,1.4885333E0,0E0,0E0,5.0728407E0,5.90744E-1,0E0,0E0,0E0,0E0,0E0,0E0,0E0,0E0,0E0,0E0],"parents":[2147483647,0,0,1,1,2,2,3,3,4,4,5,5,6,6,7,7,8,8,10,10,13,13,14,14],"right_children":[2,4,6,8,10,12,14,16,18,-1,20,-1,-1,22,24,-1,-1,-1,-1,-1,-1,-1,-1,-1,-1],"split_conditions":[3E0,3.3E0,3.2E0,3.8E0,2.6E0,1.03E1,5.8E0,1.6E0,1.2E0,-4.9058735E-2,1E-1,-5.0257266E-2,-2.3550838E-3,1E-1,1.6E0,-4.863078E-2,-2.4016155E-3,-1.6288038E-2,2.6680112E-2,2.3892254E-2,-4.6772055E-2,6.944147E-2,3.5998854E-3,5.347883E-2,6.6873685E-2],"split_indices":[0,4,1,1,0,4,1,2,0,0,2,0,0,4,2,0,0,0,0,0,0,0,0,0,0],"split_type":[0,0,0,0,0,0,0,0,0,0,0,0,0,0,0,0,0,0,0,0,0,0,0,0,0],"sum_hessian":[5.4145264E2,2.9038644E2,2.510662E2,1.4552304E2,1.4486342E2,4.422708E1,2.0683911E2,5.3276886E1,9.224615E1,1.3844844E2,6.4149785E0,4.289718E1,1.3299024E0,3.244438E1,1.7439473E2,5.1724094E1,1.5527927E0,6.3984013E1,2.8262136E1,2.2475903E0,4.1673884E0,1.0448879E1,2.19955E1,6.935419E1,1.0504054E2],"tree_param":{"num_deleted":"0","num_feature":"5","num_nodes":"25","size_leaf_vector":"1"}},{"base_weights":[-6.1750476E-4,4.4762427E-1,-5.702808E-1,6.9211555E-1,1.8194741E-1,-4.3399158E-1,-6.0218906E-1,8.1819916E-1,5.026183E-1,-4.3730298E-1,7.218498E-1,-5.811721E-1,4.952215E-1,-4.8524823E-2,-2.0595095E-1,6.8369344E-2,-3.0437554E-3,5.801472E-2,2.7919225E-2,-4.070739E-2,7.593358E-3,2.6257576E-2,6.554448E-2,-5.0001126E-2,-1.1891258E-2,-3.6936952E-3,6.804102E-2,-3.2599892E-2,1.092824E-2],"categories":[],"categories_nodes":[],"categories_segments":[],"categories_sizes":[],"default_left":[0,0,0,0,0,0,0,0,0,0,0,0,0,0,0,0,0,0,0,0,0,0,0,0,0,0,0,0,0],"id":26,"left_children":[1,3,5,7,9,11,13,15,17,19,21,23,25,-1,27,-1,-1,-1,-1,-1,-1,-1,-1,-1,-1,-1,-1,-1,-1],"loss_changes":[1.3974573E2,1.9768757E1,7.8668976E-1,3.3910904E0,4.9843266E1,7.030073E0,2.0883942E-1,2.9626808E0,2.0095959E0,2.69911E0,2.7814674E0,7.228575E-1,1.4397558E0,0E0,3.053665E-1,0E0,0E0,0E0,0E0,0E0,0E0,0E0,0E0,0E0,0E0,0E0,0E0,0E0,0E0],"parents":[2147483647,0,0,1,1,2,2,3,3,4,4,5,5,6,6,7,7,8,8,9,9,10,10,11,11,12,12,14,14],"right_children":[2,4,6,8,10,12,14,16,18,20,22,24,26,-1,28,-1,-1,-1,-1,-1,-1,-1,-1,-1,-1,-1,-1,-1,-1],"split_conditions":[1.5E0,6.2E0,3E0,1.2E0,5.6E0,7.9E0,1.918E2,8E-1,6.6E0,3.9E0,9.7E0,1.552E2,5.3E0,-4.8524823E-2,3.8E0,6.8369344E-2,-3.0437554E-3,5.801472E-2,2.7919225E-2,-4.070739E-2,7.593358E-3,2.6257576E-2,6.554448E-2,-5.0001126E-2,-1.1891258E-2,-3.6936952E-3,6.804102E-2,-3.2599892E-2,1.092824E-2],"split_indices":[0,1,0,1,4,4,3,0,4,4,4,3,1,0,1,0,0,0,0,0,0,0,0,0,0,0,0,0,0],"split_type":[0,0,0,0,0,0,0,0,0,0,0,0,0,0,0,0,0,0,0,0,0,0,0,0,0,0,0,0,0],"sum_hessian":[5.452783E2,3.05281E2,2.3999733E2,1.5814328E2,1.4713774E2,4.8299217E1,1.916981E2,9.2968285E1,6.5175E1,6.862134E1,7.8516396E1,4.201837E1,6.280847E0,1.890814E2,2.6167073E0,8.9177315E1,3.7909648E0,2.5096506E1,4.0078495E1,6.0529118E1,8.092218E0,1.6448408E1,6.206799E1,3.7747242E1,4.2711277E0,2.8333845E0,3.4474626E0,1.5280576E0,1.0886496E0],"tree_param":{"num_deleted":"0","num_feature":"5","num_nodes":"29","size_leaf_vector":"1"}},{"base_weights":[3.279817E-3,2.1232085E-1,-4.4818848E-1,-3.9698687E-1,3.394787E-1,-4.9492148E-1,1.52986E-1,-3.854804E-2,-1.19814955E-1,1.1241912E-1,5.889389E-1,-6.01107E-1,-3.864912E-1,6.763249E-2,-3.6409324E-1,-4.4622175E-2,2.6282635E-2,1.575786E-2,-1.9858263E-2,1.7094683E-2,6.28239E-2,-5.010818E-2,-3.2490045E-2,6.1625805E-2,-3.3290304E-2,-4.5537855E-2,2.223406E-2],"categories":[],"categories_nodes":[],"categories_segments":[],"categories_sizes":[],"default_left":[0,0,0,0,0,0,0,0,0,0,0,0,0,0,0,0,0,0,0,0,0,0,0,0,0,0,0],"id":27,"left_children":[1,3,5,7,9,11,13,-1,15,17,19,21,23,-1,25,-1,-1,-1,-1,-1,-1,-1,-1,-1,-1,-1,-1],"loss_changes":[5.175148E1,2.9173641E1,4.951523E0,1.4752731E0,1.7528393E1,1.6244583E0,5.0631766E0,0E0,3.4444134E0,5.045381E0,1.0721104E1,1.3781548E-1,3.1522055E0,0E0,1.2516338E0,0E0,0E0,0E0,0E0,0E0,0E0,0E0,0E0,0E0,0E0,0E0,0E0],"parents":[2147483647,0,0,1,1,2,2,3,3,4,4,5,5,6,6,8,8,9,9,10,10,11,11,12,12,14,14],"right_children":[2,4,6,8,10,12,14,-1,16,18,20,22,24,-1,26,-1,-1,-1,-1,-1,-1,-1,-1,-1,-1,-1,-1],"split_conditions":[2.5E0,5.77E1,1.624E2,6.2E0,8E-1,1.085E2,2.9E0,-3.854804E-2,4.53E1,1.31E2,9.2E1,2E1,1.087E2,6.763249E-2,1.918E2,-4.4622175E-2,2.6282635E-2,1.575786E-2,-1.9858263E-2,1.7094683E-2,6.28239E-2,-5.010818E-2,-3.2490045E-2,6.1625805E-2,-3.3290304E-2,-4.5537855E-2,2.223406E-2],"split_indices":[2,3,3,4,0,3,0,0,3,3,3,4,3,0,3,0,0,0,0,0,0,0,0,0,0,0,0],"split_type":[0,0,0,0,0,0,0,0,0,0,0,0,0,0,0,0,0,0,0,0,0,0,0,0,0,0,0],"sum_hessian":[5.4634937E2,3.738003E2,1.725491E2,6.417382E1,3.0962646E2,1.6026727E2,1.22818165E1,4.856568E1,1.5608141E1,1.6285023E2,1.4677623E2,7.8676155E1,8.1591125E1,4.979205E0,7.302612E0,7.772051E0,7.8360896E0,1.3228883E2,3.056141E1,5.113756E1,9.5638664E1,6.769851E1,1.0977648E1,1.4138626E0,8.017726E1,5.620276E0,1.6823357E0],"tree_param":{"num_deleted":"0","num_feature":"5","num_nodes":"27","size_leaf_vector":"1"}},{"base_weights":[-4.5573334E-3,-4.181175E-1,4.2255226E-1,-2.5201404E-1,-5.953741E-1,-5.4101396E-1,6.522482E-1,-5.8004737E-1,-5.285962E-2,-4.849952E-2,6.57692E-3,-6.0076576E-1,9.9676766E-2,2.5920746E-1,7.0393246E-1,-4.764842E-2,-4.6498E-3,-2.2743763E-2,1.6304746E-2,-4.950515E-2,3.230681E-3,-4.0561445E-2,5.632943E-2,6.5691404E-2,-8.988447E-3,5.0354004E-2,6.1452262E-2],"categories":[],"categories_nodes":[],"categories_segments":[],"categories_sizes":[],"default_left":[0,0,0,0,0,0,0,0,0,0,0,0,0,0,0,0,0,0,0,0,0,0,0,0,0,0,0],"id":28,"left_children":[1,3,5,7,9,11,13,15,17,-1,-1,19,21,23,25,-1,-1,-1,-1,-1,-1,-1,-1,-1,-1,-1,-1],"loss_changes":[9.2421616E1,7.676708E0,5.732373E1,9.047841E0,9.915886E-1,1.977665E0,4.0491486E0,3.9084053E-1,5.2597833E0,0E0,0E0,5.5688477E-1,2.2386484E0,5.4774446E0,3.9461517E-1,0E0,0E0,0E0,0E0,0E0,0E0,0E0,0E0,0E0,0E0,0E0,0E0],"parents":[2147483647,0,0,1,1,2,2,3,3,4,4,5,5,6,6,7,7,8,8,11,11,12,12,13,13,14,14],"right_children":[2,4,6,8,10,12,14,16,18,-1,-1,20,22,24,26,-1,-1,-1,-1,-1,-1,-1,-1,-1,-1,-1,-1],"split_conditions":[2.8E0,3.6E0,3.7E0,4.5E0,2.6E0,2.4E0,5.4E0,2.6E0,5E-1,-4.849952E-2,6.57692E-3,9.2E0,2.8E0,1E-1,2.2E0,-4.764842E-2,-4.6498E-3,-2.2743763E-2,1.6304746E-2,-4.950515E-2,3.230681E-3,-4.0561445E-2,5.632943E-2,6.5691404E-2,-8.988447E-3,5.0354004E-2,6.1452262E-2],"split_indices":[0,4,1,1,0,2,1,2,0,0,0,4,1,4,2,0,0,0,0,0,0,0,0,0,0,0,0],"split_type":[0,0,0,0,0,0,0,0,0,0,0,0,0,0,0,0,0,0,0,0,0,0,0,0,0,0,0],"sum_hessian":[5.212333E2,2.6482782E2,2.564055E2,1.3796524E2,1.2686257E2,4.909565E1,2.0730983E2,5.1396294E1,8.6568954E1,1.2496318E2,1.8993891E0,4.4964508E1,4.131143E0,2.4791813E1,1.82518E2,4.97715E1,1.6247942E0,4.5465363E1,4.110359E1,4.3767277E1,1.1972318E0,2.1421673E0,1.9889759E0,9.386352E0,1.5405462E1,8.949229E1,9.302573E1],"tree_param":{"num_deleted":"0","num_feature":"5","num_nodes":"27","size_leaf_vector":"1"}},{"base_weights":[1.4209632E-2,4.428225E-1,-5.447332E-1,2.5447762E-1,7.274478E-1,-5.815132E-1,-2.926008E-1,-4.4434094E-3,4.1704294E-1,1.0035224E-1,6.547257E-2,-5.0645474E-2,-5.3173673E-1,6.3489646E-1,-5.005661E-2,1.0859041E-2,-4.035849E-2,4.3784797E-2,6.971043E-3,5.690029E-2,-3.0700864E-2,-6.6804998E-3,-4.3745264E-2,4.6165967E-3,6.7503326E-2],"categories":[],"categories_nodes":[],"categories_segments":[],"categories_sizes":[],"default_left":[0,0,0,0,0,0,0,0,0,0,0,0,0,0,0,0,0,0,0,0,0,0,0,0,0],"id":29,"left_children":[1,3,5,7,9,11,13,15,17,19,-1,-1,21,23,-1,-1,-1,-1,-1,-1,-1,-1,-1,-1,-1],"loss_changes":[1.287529E2,1.6120281E1,1.9930191E0,7.770997E0,6.7960205E0,1.8318176E-1,1.0193796E1,5.128007E0,4.825632E0,5.127528E0,0E0,0E0,6.931095E-1,1.0214002E0,0E0,0E0,0E0,0E0,0E0,0E0,0E0,0E0,0E0,0E0,0E0],"parents":[2147483647,0,0,1,1,2,2,3,3,4,4,5,5,6,6,7,7,8,8,9,9,12,12,13,13],"right_children":[2,4,6,8,10,12,14,16,18,20,-1,-1,22,24,-1,-1,-1,-1,-1,-1,-1,-1,-1,-1,-1],"split_conditions":[1.5E0,2.5E0,8.6E0,1.04E2,3.3E0,2E-1,3E0,2E-1,2E-1,7.27E1,6.547257E-2,-5.0645474E-2,4E-1,1.1E0,-5.005661E-2,1.0859041E-2,-4.035849E-2,4.3784797E-2,6.971043E-3,5.690029E-2,-3.0700864E-2,-6.6804998E-3,-4.3745264E-2,4.6165967E-3,6.7503326E-2],"split_indices":[0,2,4,3,4,2,0,0,2,3,0,0,2,2,0,0,0,0,0,0,0,0,0,0,0],"split_type":[0,0,0,0,0,0,0,0,0,0,0,0,0,0,0,0,0,0,0,0,0,0,0,0,0],"sum_hessian":[5.354262E2,3.031614E2,2.3226482E2,1.8357716E2,1.1958425E2,2.0155626E2,3.0708548E1,7.118E1,1.1239716E2,1.541472E1,1.0416953E2,9.325281E1,1.0830346E2,7.875143E0,2.2833405E1,5.616356E1,1.5016442E1,8.010695E1,3.2290215E1,6.607517E0,8.807202E0,3.7376785E0,1.0456578E2,2.4319043E0,5.4432387E0],"tree_param":{"num_deleted":"0","num_feature":"5","num_nodes":"25","size_leaf_vector":"1"}},{"base_weights":[1.9810874E-2,2.3788355E-1,-3.5610974E-1,-2.2010389E-1,4.161513E-1,-5.2643037E-1,-1.2949298E-1,-3.9002666E-1,2.474979E-2,2.0194744E-1,7.790458E-1,-5.791331E-1,-4.1585246E-1,3.7944102E-1,-2.929346E-1,-3.499278E-2,-8.54156E-4,-3.6995605E-2,1.8969582E-2,2.5702788E-2,-2.2757526E-2,-2.205934E-3,6.377573E-2,-3.6140557E-2,-4.895815E-2,4.326088E-2,-3.6724545E-2,6.054388E-2,-4.511804E-2,1.0258881E-2,-3.4350444E-2],"categories":[],"categories_nodes":[],"categories_segments":[],"categories_sizes":[],"default_left":[0,0,0,0,0,0,0,0,0,0,0,0,0,0,0,0,0,0,0,0,0,0,0,0,0,0,0,0,0,0,0],"id":30,"left_children":[1,3,5,7,9,11,13,15,17,19,21,23,25,27,29,-1,-1,-1,-1,-1,-1,-1,-1,-1,-1,-1,-1,-1,-1,-1,-1],"loss_changes":[4.4084435E1,2.787333E1,7.5528545E0,4.003596E0,1.890939E1,4.1420364E-1,7.268779E0,1.0149927E0,4.275846E0,9.12307E0,1.3498001E0,3.13282E-2,1.8942671E0,8.028415E0,3.8304353E0,0E0,0E0,0E0,0E0,0E0,0E0,0E0,0E0,0E0,0E0,0E0,0E0,0E0,0E0,0E0,0E0],"parents":[2147483647,0,0,1,1,2,2,3,3,4,4,5,5,6,6,7,7,8,8,9,9,10,10,11,11,12,12,13,13,14,14],"right_children":[2,4,6,8,10,12,14,16,18,20,22,24,26,28,30,-1,-1,-1,-1,-1,-1,-1,-1,-1,-1,-1,-1,-1,-1,-1,-1],"split_conditions":[1.6E0,7.55E1,1.145E2,5.77E1,1.9E0,9.91E1,3E0,7.9E0,3E-1,1.31E2,7.69E1,2.5E0,9.93E1,1.43E1,1.5E0,-3.499278E-2,-8.54156E-4,-3.6995605E-2,1.8969582E-2,2.5702788E-2,-2.2757526E-2,-2.205934E-3,6.377573E-2,-3.6140557E-2,-4.895815E-2,4.326088E-2,-3.6724545E-2,6.054388E-2,-4.511804E-2,1.0258881E-2,-3.4350444E-2],"split_indices":[2,3,3,3,0,3,2,4,0,3,3,2,3,4,4,0,0,0,0,0,0,0,0,0,0,0,0,0,0,0,0],"split_type":[0,0,0,0,0,0,0,0,0,0,0,0,0,0,0,0,0,0,0,0,0,0,0,0,0,0,0,0,0,0,0],"sum_hessian":[5.357259E2,3.392773E2,1.9644858E2,9.4993904E1,2.442834E2,1.1139976E2,8.504882E1,5.5727448E1,3.9266453E1,1.5459055E2,8.9692856E1,7.257318E1,3.882658E1,2.0352488E1,6.4696335E1,4.9403584E1,6.3238664E0,1.15628195E1,2.7703634E1,1.2440782E2,3.0182728E1,1.9624557E0,8.77304E1,1.7901497E1,5.4671684E1,1.1801357E0,3.7646442E1,1.4678887E1,5.673601E0,1.5845588E1,4.8850742E1],"tree_param":{"num_deleted":"0","num_feature":"5","num_nodes":"31","size_leaf_vector":"1"}},{"base_weights":[-4.902089E-4,5.582799E-1,-2.0485437E-1,-5.706826E-1,7.4030024E-1,-5.4583156E-1,1.1665751E-1,-4.894656E-2,3.8482803E-3,7.9469305E-1,3.8400143E-1,-3.2478753E-1,-5.9968275E-1,3.3264774E-1,-5.632347E-1,6.43272E-2,1.1167081E-2,5.5387538E-2,4.6019184E-5,-4.8220515E-2,4.313738E-3,-4.1644957E-2,-5.0608728E-2,-4.554209E-2,2.9896507E-2,-2.7293269E-2,-4.7526617E-2],"categories":[],"categories_nodes":[],"categories_segments":[],"categories_sizes":[],"default_left":[0,0,0,0,0,0,0,0,0,0,0,0,0,0,0,0,0,0,0,0,0,0,0,0,0,0,0],"id":31,"left_children":[1,3,5,7,9,11,13,-1,-1,15,17,19,21,23,25,-1,-1,-1,-1,-1,-1,-1,-1,-1,-1,-1,-1],"loss_changes":[5.9419346E1,2.9057274E1,4.1831573E1,5.364413E-1,2.028862E0,2.0082855E0,2.9104939E1,0E0,0E0,5.251999E-1,2.114152E0,4.078795E0,5.5316925E-2,5.77017E0,1.2508869E-1,0E0,0E0,0E0,0E0,0E0,0E0,0E0,0E0,0E0,0E0,0E0,0E0],"parents":[2147483647,0,0,1,1,2,2,3,3,4,4,5,5,6,6,9,9,10,10,11,11,12,12,13,13,14,14],"right_children":[2,4,6,8,10,12,14,-1,-1,16,18,20,22,24,26,-1,-1,-1,-1,-1,-1,-1,-1,-1,-1,-1,-1],"split_conditions":[7.21E1,3.2E0,2E0,9E0,2.6E0,9.2E1,1.38E1,-4.894656E-2,3.8482803E-3,1.36E1,5.99E1,7E0,1E-1,2.9E0,1.6E1,6.43272E-2,1.1167081E-2,5.5387538E-2,4.6019184E-5,-4.8220515E-2,4.313738E-3,-4.1644957E-2,-5.0608728E-2,-4.554209E-2,2.9896507E-2,-2.7293269E-2,-4.7526617E-2],"split_indices":[3,1,2,4,2,3,4,0,0,4,3,1,4,1,4,0,0,0,0,0,0,0,0,0,0,0,0],"split_type":[0,0,0,0,0,0,0,0,0,0,0,0,0,0,0,0,0,0,0,0,0,0,0,0,0,0,0],"sum_hessian":[5.1834186E2,1.3834601E2,3.7999582E2,1.8911867E1,1.1943415E2,1.8407677E2,1.9591905E2,1.7743177E1,1.1686888E0,1.0254859E2,1.6885555E1,3.743751E1,1.4663927E2,1.4907211E2,4.684695E1,1.0087421E2,1.6743846E0,8.912579E0,7.972976E0,2.1249199E1,1.618831E1,4.8031418E1,9.860784E1,5.930621E0,1.431415E2,7.1847744E0,3.9662174E1],"tree_param":{"num_deleted":"0","num_feature":"5","num_nodes":"27","size_leaf_vector":"1"}},{"base_weights":[1.5103475E-4,4.0415525E-1,-5.351044E-1,2.1912953E-1,7.072013E-1,-3.8171875E-1,-5.726231E-1,-4.6646755E-2,3.9001587E-1,1.19327754E-1,6.354407E-2,-5.5669355E-1,4.6506068E-1,-4.6177898E-2,-1.7370571E-1,7.3677665E-3,-4.4575814E-2,4.1073535E-2,6.3249404E-3,6.295829E-2,-2.0237228E-2,-4.8372477E-2,-7.819658E-3,-5.6564193E-3,6.3319854E-2,1.404046E-2,-3.1188557E-2],"categories":[],"categories_nodes":[],"categories_segments":[],"categories_sizes":[],"default_left":[0,0,0,0,0,0,0,0,0,0,0,0,0,0,0,0,0,0,0,0,0,0,0,0,0,0,0],"id":32,"left_children":[1,3,5,7,9,11,13,15,17,19,-1,21,23,-1,25,-1,-1,-1,-1,-1,-1,-1,-1,-1,-1,-1,-1],"loss_changes":[1.1288866E2,1.6525917E1,1.0736313E0,8.473326E0,5.6568947E0,7.241869E0,2.2717285E-1,5.275313E0,4.311514E0,4.094536E0,0E0,8.10688E-1,1.5628107E0,0E0,3.29942E-1,0E0,0E0,0E0,0E0,0E0,0E0,0E0,0E0,0E0,0E0,0E0,0E0],"parents":[2147483647,0,0,1,1,2,2,3,3,4,4,5,5,6,6,7,7,8,8,9,9,11,11,12,12,14,14],"right_children":[2,4,6,8,10,12,14,16,18,20,-1,22,24,-1,26,-1,-1,-1,-1,-1,-1,-1,-1,-1,-1,-1,-1],"split_conditions":[1.5E0,2.5E0,3E0,1.04E2,3.3E0,7.9E0,1.918E2,2E-1,2E-1,6.85E1,6.354407E-2,1.552E2,1.1E0,-4.6177898E-2,1.6E0,7.3677665E-3,-4.4575814E-2,4.1073535E-2,6.3249404E-3,6.295829E-2,-2.0237228E-2,-4.8372477E-2,-7.819658E-3,-5.6564193E-3,6.3319854E-2,1.404046E-2,-3.1188557E-2],"split_indices":[0,2,0,3,4,4,3,0,2,3,0,3,2,0,2,0,0,0,0,0,0,0,0,0,0,0,0],"split_type":[0,0,0,0,0,0,0,0,0,0,0,0,0,0,0,0,0,0,0,0,0,0,0,0,0,0,0],"sum_hessian":[5.200393E2,2.9649414E2,2.235452E2,1.8516449E2,1.1132966E2,4.6129684E1,1.7741551E2,7.274798E1,1.1241651E2,1.4671985E1,9.665768E1,3.8513916E1,7.615771E0,1.7495087E2,2.4646423E0,5.7847378E1,1.4900597E1,8.001224E1,3.240427E1,4.8537164E0,9.818269E0,3.4582394E1,3.9315224E0,3.1799984E0,4.4357724E0,1.0141826E0,1.4504598E0],"tree_param":{"num_deleted":"0","num_feature":"5","num_nodes":"27","size_leaf_vector":"1"}},{"base_weights":[3.6583727E-3,1.8129751E-1,-4.0561196E-1,-2.5942072E-1,3.4929034E-1,-5.014587E-1,-5.3622928E-2,5.4825026E-1,-4.912272E-1,-5.700417E-2,5.386602E-1,3.4695786E-1,-5.2814806E-1,3.1467828E-1,-3.084348E-1,5.5058245E-2,-1.454376E-2,-4.242503E-2,5.508619E-2,1.3620068E-2,-2.6355956E-2,4.5378473E-2,-2.4301386E-3,-3.0271683E-2,6.494929E-2,-4.8230987E-2,-3.710664E-2,-1.7410737E-2,6.32364E-2,3.857277E-2,-3.3450425E-2],"categories":[],"categories_nodes":[],"categories_segments":[],"categories_sizes":[],"default_left":[0,0,0,0,0,0,0,0,0,0,0,0,0,0,0,0,0,0,0,0,0,0,0,0,0,0,0,0,0,0,0],"id":33,"left_children":[1,3,5,7,9,11,13,15,17,19,21,23,25,27,29,-1,-1,-1,-1,-1,-1,-1,-1,-1,-1,-1,-1,-1,-1,-1,-1],"loss_changes":[3.821882E1,2.7230148E1,5.341076E0,1.9317196E1,2.0483334E1,3.0123196E0,3.3979807E0,2.491911E0,4.034788E0,5.344459E0,2.9665833E0,1.7956971E0,3.0451965E-1,3.9401917E0,2.048385E0,0E0,0E0,0E0,0E0,0E0,0E0,0E0,0E0,0E0,0E0,0E0,0E0,0E0,0E0,0E0,0E0],"parents":[2147483647,0,0,1,1,2,2,3,3,4,4,5,5,6,6,7,7,8,8,9,9,10,10,11,11,12,12,13,13,14,14],"right_children":[2,4,6,8,10,12,14,16,18,20,22,24,26,28,30,-1,-1,-1,-1,-1,-1,-1,-1,-1,-1,-1,-1,-1,-1,-1,-1],"split_conditions":[2.5E0,7.55E1,1.376E2,2E-1,2E-1,2.2E0,1.6E0,1E-1,1.37E1,1.9E0,1.51E1,9.11E1,9.91E1,5.9E0,1.393E2,5.5058245E-2,-1.454376E-2,-4.242503E-2,5.508619E-2,1.3620068E-2,-2.6355956E-2,4.5378473E-2,-2.4301386E-3,-3.0271683E-2,6.494929E-2,-4.8230987E-2,-3.710664E-2,-1.7410737E-2,6.32364E-2,3.857277E-2,-3.3450425E-2],"split_indices":[2,3,3,1,1,1,4,2,4,4,4,3,3,1,3,0,0,0,0,0,0,0,0,0,0,0,0,0,0,0,0],"split_type":[0,0,0,0,0,0,0,0,0,0,0,0,0,0,0,0,0,0,0,0,0,0,0,0,0,0,0,0,0,0,0],"sum_hessian":[5.236768E2,3.6556467E2,1.5811217E2,1.007388E2,2.6482587E2,1.2393892E2,3.4173252E1,2.2160618E1,7.857818E1,8.4413994E1,1.8041188E2,3.4139626E0,1.20524956E2,1.3878516E1,2.0294737E1,1.8643276E1,3.5173419E0,7.65913E1,1.9868805E0,4.6228485E1,3.818551E1,1.717897E2,8.622188E0,1.4061539E0,2.0078087E0,5.1871746E1,6.8653206E1,6.8061614E0,7.0723543E0,2.05909E0,1.8235647E1],"tree_param":{"num_deleted":"0","num_feature":"5","num_nodes":"31","size_leaf_vector":"1"}},{"base_weights":[5.9197275E-3,-5.877695E-1,1.9908413E-1,9.6500537E-4,-4.752447E-2,7.114366E-1,-4.932535E-2,7.674873E-1,3.905869E-1,-4.3899655E-1,1.6992465E-1,6.1740182E-2,1.9851487E-2,-1.1458684E-2,4.0528663E-2,-8.930081E-3,-4.7761433E-2,3.593323E-2,-3.3212926E-2],"categories":[],"categories_nodes":[],"categories_segments":[],"categories_sizes":[],"default_left":[0,0,0,0,0,0,0,0,0,0,0,0,0,0,0,0,0,0,0],"id":34,"left_children":[1,3,5,-1,-1,7,9,11,13,15,17,-1,-1,-1,-1,-1,-1,-1,-1],"loss_changes":[5.699884E1,4.6726608E-1,4.776114E1,0E0,0E0,1.903408E0,2.1730766E1,3.7204742E-2,1.3270609E0,4.6692657E0,2.680632E1,0E0,0E0,0E0,0E0,0E0,0E0,0E0,0E0],"parents":[2147483647,0,0,1,1,2,2,5,5,6,6,7,7,8,8,9,9,10,10],"right_children":[2,4,6,-1,-1,8,10,12,14,16,18,-1,-1,-1,-1,-1,-1,-1,-1],"split_conditions":[3.2E0,3.47E1,7.55E1,9.6500537E-4,-4.752447E-2,2.6E0,2.3E0,1.36E1,5.8E0,9.91E1,9.9E0,6.1740182E-2,1.9851487E-2,-1.1458684E-2,4.0528663E-2,-8.930081E-3,-4.7761433E-2,3.593323E-2,-3.3212926E-2],"split_indices":[1,3,3,0,0,2,2,4,1,3,4,0,0,0,0,0,0,0,0],"split_type":[0,0,0,0,0,0,0,0,0,0,0,0,0,0,0,0,0,0,0],"sum_hessian":[4.9500635E2,1.21017426E2,3.7398892E2,1.2456113E0,1.1977182E2,1.2150892E2,2.5248E2,1.0225372E2,1.92552E1,9.054783E1,1.6193217E2,1.0093876E2,1.3149601E0,3.3959079E0,1.5859292E1,3.003375E1,6.051408E1,1.09773506E2,5.2158665E1],"tree_param":{"num_deleted":"0","num_feature":"5","num_nodes":"19","size_leaf_vector":"1"}},{"base_weights":[-1.5898513E-3,3.8168827E-1,-5.231695E-1,6.163952E-1,1.20119095E-1,-3.6254686E-1,-5.6350064E-1,7.4522156E-1,4.4354102E-1,-6.036542E-1,6.371058E-1,-4.950631E-1,-7.306939E-2,-4.7947586E-2,-4.6629536E-1,6.246116E-2,-1.18986685E-2,1.724917E-2,5.3571682E-2,-5.050637E-2,-8.74042E-3,1.1385241E-2,5.6083076E-2,-4.8886657E-2,3.32926E-2,-3.1545654E-2,3.249535E-2,-4.698693E-2,-1.8842118E-2],"categories":[],"categories_nodes":[],"categories_segments":[],"categories_sizes":[],"default_left":[0,0,0,0,0,0,0,0,0,0,0,0,0,0,0,0,0,0,0,0,0,0,0,0,0,0,0,0,0],"id":35,"left_children":[1,3,5,7,9,11,13,15,17,19,21,23,25,-1,27,-1,-1,-1,-1,-1,-1,-1,-1,-1,-1,-1,-1,-1,-1],"loss_changes":[1.03818756E2,1.8303925E1,1.2207146E0,3.177517E0,5.3824158E1,1.7649522E0,3.2686996E-1,2.9374428E0,3.4498367E0,7.5227356E-1,2.5509834E0,3.6410718E0,2.6108701E0,0E0,1.2970381E0,0E0,0E0,0E0,0E0,0E0,0E0,0E0,0E0,0E0,0E0,0E0,0E0,0E0,0E0],"parents":[2147483647,0,0,1,1,2,2,3,3,4,4,5,5,6,6,7,7,8,8,9,9,10,10,11,11,12,12,14,14],"right_children":[2,4,6,8,10,12,14,16,18,20,22,24,26,-1,28,-1,-1,-1,-1,-1,-1,-1,-1,-1,-1,-1,-1,-1,-1],"split_conditions":[1.5E0,6.2E0,3E0,9E-1,1.8E0,2.9E0,1E1,8E-1,1.7E0,1.2E0,3E0,1.552E2,9.8E0,-4.7947586E-2,9.2E1,6.246116E-2,-1.18986685E-2,1.724917E-2,5.3571682E-2,-5.050637E-2,-8.74042E-3,1.1385241E-2,5.6083076E-2,-4.8886657E-2,3.32926E-2,-3.1545654E-2,3.249535E-2,-4.698693E-2,-1.8842118E-2],"split_indices":[0,1,0,1,2,2,1,0,2,2,2,3,1,0,3,0,0,0,0,0,0,0,0,0,0,0,0,0,0],"split_type":[0,0,0,0,0,0,0,0,0,0,0,0,0,0,0,0,0,0,0,0,0,0,0,0,0,0,0,0,0],"sum_hessian":[5.173284E2,2.9835394E2,2.1897449E2,1.5653658E2,1.4181735E2,4.5952686E1,1.730218E2,8.779364E1,6.8742935E1,5.90211E1,8.279626E1,3.1035254E1,1.4917433E1,1.2263478E2,5.0387012E1,8.455828E1,3.235355E0,3.5206467E1,3.353647E1,5.563008E1,3.3910158E0,9.843223E0,7.295303E1,2.7822203E1,3.2130504E0,9.03707E0,5.880362E0,3.2037693E1,1.834932E1],"tree_param":{"num_deleted":"0","num_feature":"5","num_nodes":"29","size_leaf_vector":"1"}},{"base_weights":[2.2628808E-2,1.96759E-1,-3.863504E-1,6.890747E-2,2.7841252E-1,-1.673198E-1,-4.6070188E-1,-4.7500464E-1,5.683545E-1,7.0173764E-1,-3.6195565E-2,4.027118E-1,-5.267501E-1,-2.2961287E-1,-5.638502E-1,-5.0069097E-2,2.1261342E-2,5.1184453E-2,-2.5786184E-2,-4.367504E-3,6.1805896E-2,1.9926758E-2,-1.616187E-2,-9.472753E-3,4.5781713E-2,3.0794725E-2,-4.754237E-2,-3.548754E-2,2.1444583E-2,-2.3361666E-2,-4.593965E-2],"categories":[],"categories_nodes":[],"categories_segments":[],"categories_sizes":[],"default_left":[0,0,0,0,0,0,0,0,0,0,0,0,0,0,0,0,0,0,0,0,0,0,0,0,0,0,0,0,0,0,0],"id":36,"left_children":[1,3,5,7,9,11,13,15,17,19,21,23,25,27,29,-1,-1,-1,-1,-1,-1,-1,-1,-1,-1,-1,-1,-1,-1,-1,-1],"loss_changes":[3.674087E1,3.75743E0,2.4321747E0,3.89329E1,2.9383629E1,8.534426E0,2.598915E0,7.840769E0,4.956959E0,5.0798683E0,6.077656E0,1.505789E0,1.789114E0,4.060296E0,5.3993225E-2,0E0,0E0,0E0,0E0,0E0,0E0,0E0,0E0,0E0,0E0,0E0,0E0,0E0,0E0,0E0,0E0],"parents":[2147483647,0,0,1,1,2,2,3,3,4,4,5,5,6,6,7,7,8,8,9,9,10,10,11,11,12,12,13,13,14,14],"right_children":[2,4,6,8,10,12,14,16,18,20,22,24,26,28,30,-1,-1,-1,-1,-1,-1,-1,-1,-1,-1,-1,-1,-1,-1,-1,-1],"split_conditions":[2.5E0,2E-1,1.6E0,2.6E0,3.6E0,2.9E0,6.9E0,9.4E0,1.5E0,1E0,2.8E0,1E-1,3.7E0,1.1E0,2.9E0,-5.0069097E-2,2.1261342E-2,5.1184453E-2,-2.5786184E-2,-4.367504E-3,6.1805896E-2,1.9926758E-2,-1.616187E-2,-9.472753E-3,4.5781713E-2,3.0794725E-2,-4.754237E-2,-3.548754E-2,2.1444583E-2,-2.3361666E-2,-4.593965E-2],"split_indices":[2,0,4,1,1,0,1,4,2,0,0,0,1,0,2,0,0,0,0,0,0,0,0,0,0,0,0,0,0,0,0],"split_type":[0,0,0,0,0,0,0,0,0,0,0,0,0,0,0,0,0,0,0,0,0,0,0,0,0,0,0,0,0,0,0],"sum_hessian":[5.1384283E2,3.607612E2,1.5308162E2,1.413235E2,2.1943771E2,3.9619034E1,1.1346258E2,6.767376E1,7.3649734E1,9.302976E1,1.2640795E2,1.5274428E1,2.4344604E1,3.6011055E1,7.745152E1,5.63526E1,1.1321163E1,6.844101E1,5.2087264E0,7.9864144E0,8.504334E1,4.6283165E1,8.0124794E1,3.8238733E0,1.1450555E1,1.3547349E0,2.298987E1,2.5259134E1,1.0751919E1,3.9243762E0,7.3527145E1],"tree_param":{"num_deleted":"0","num_feature":"5","num_nodes":"31","size_leaf_vector":"1"}},{"base_weights":[-1.4140976E-2,-5.5219513E-1,1.7304277E-1,3.6822638E-4,-5.680525E-1,6.8124473E-1,-5.0050054E-2,-3.4531184E-2,4.267523E-2,-4.7335777E-2,-3.044156E-1,5.910087E-2,3.0618387E-1,-4.251212E-1,1.2757199E-1,2.8199196E-2,-4.3553695E-2,5.095346E-2,-4.601841E-3,-1.971946E-3,-4.5374103E-2,2.48642E-2,-4.150464E-2],"categories":[],"categories_nodes":[],"categories_segments":[],"categories_sizes":[],"default_left":[0,0,0,0,0,0,0,0,0,0,0,0,0,0,0,0,0,0,0,0,0,0,0],"id":37,"left_children":[1,3,5,7,9,11,13,-1,-1,-1,15,-1,17,19,21,-1,-1,-1,-1,-1,-1,-1,-1],"loss_changes":[4.890342E1,1.0982628E0,4.088314E1,1.2654973E0,5.792694E-1,2.1463547E0,1.6796997E1,0E0,0E0,0E0,2.0974257E0,0E0,2.0011325E0,4.5938606E0,2.045144E1,0E0,0E0,0E0,0E0,0E0,0E0,0E0,0E0],"parents":[2147483647,0,0,1,1,2,2,3,3,4,4,5,5,6,6,10,10,12,12,13,13,14,14],"right_children":[2,4,6,8,10,12,14,-1,-1,-1,16,-1,18,20,22,-1,-1,-1,-1,-1,-1,-1,-1],"split_conditions":[3.7E0,4.04E1,7.21E1,1E-1,3E0,2.6E0,2E0,-3.4531184E-2,4.267523E-2,-4.7335777E-2,3.3E0,5.910087E-2,5.99E1,9.2E1,1.38E1,2.8199196E-2,-4.3553695E-2,5.095346E-2,-4.601841E-3,-1.971946E-3,-4.5374103E-2,2.48642E-2,-4.150464E-2],"split_indices":[1,3,3,1,2,2,2,0,0,0,4,0,3,3,4,0,0,0,0,0,0,0,0],"split_type":[0,0,0,0,0,0,0,0,0,0,0,0,0,0,0,0,0,0,0,0,0,0,0],"sum_hessian":[4.8361374E2,1.2431731E2,3.5929645E2,3.4953606E0,1.2082195E2,1.0898247E2,2.5031398E2,2.0358016E0,1.4595588E0,1.0973575E2,1.1086201E1,9.365119E1,1.5331272E1,7.999697E1,1.70317E2,2.8411577E0,8.245043E0,7.636179E0,7.6950927E0,2.1253653E1,5.8743317E1,1.3310472E2,3.721228E1],"tree_param":{"num_deleted":"0","num_feature":"5","num_nodes":"23","size_leaf_vector":"1"}},{"base_weights":[-3.0919642E-3,3.776644E-1,-5.3329146E-1,2.1382885E-1,6.387112E-1,-5.650179E-1,-3.3241892E-1,8.857176E-2,4.9843484E-1,7.654057E-2,5.884471E-2,-4.5566607E-2,-2.2321385E-1,4.492427E-1,-4.8283022E-2,1.6019706E-2,-3.4781855E-2,5.5479486E-2,-6.743793E-3,3.5482004E-2,-3.9301135E-2,-3.166214E-2,5.5920873E-3,-4.5041884E-3,5.9875436E-2],"categories":[],"categories_nodes":[],"categories_segments":[],"categories_sizes":[],"default_left":[0,0,0,0,0,0,0,0,0,0,0,0,0,0,0,0,0,0,0,0,0,0,0,0,0],"id":38,"left_children":[1,3,5,7,9,11,13,15,17,19,-1,-1,21,23,-1,-1,-1,-1,-1,-1,-1,-1,-1,-1,-1],"loss_changes":[9.9846375E1,1.21752205E1,1.1296158E0,6.3145294E0,5.9598503E0,1.4917755E-1,6.761544E0,7.3969603E0,6.2299957E0,3.8342257E0,0E0,0E0,2.2889352E-1,1.3218442E0,0E0,0E0,0E0,0E0,0E0,0E0,0E0,0E0,0E0,0E0,0E0],"parents":[2147483647,0,0,1,1,2,2,3,3,4,4,5,5,6,6,7,7,8,8,9,9,12,12,13,13],"right_children":[2,4,6,8,10,12,14,16,18,20,-1,-1,22,24,-1,-1,-1,-1,-1,-1,-1,-1,-1,-1,-1],"split_conditions":[1.5E0,2.5E0,8.6E0,1.257E2,3.3E0,1.918E2,3E0,2E-1,3E-1,9.2E1,5.884471E-2,-4.5566607E-2,1E-1,1.1E0,-4.8283022E-2,1.6019706E-2,-3.4781855E-2,5.5479486E-2,-6.743793E-3,3.5482004E-2,-3.9301135E-2,-3.166214E-2,5.5920873E-3,-4.5041884E-3,5.9875436E-2],"split_indices":[0,2,4,3,4,3,0,0,2,3,0,0,4,2,0,0,0,0,0,0,0,0,0,0,0],"split_type":[0,0,0,0,0,0,0,0,0,0,0,0,0,0,0,0,0,0,0,0,0,0,0,0,0],"sum_hessian":[4.9259293E2,2.8686908E2,2.0572386E2,1.7736942E2,1.09499664E2,1.7609764E2,2.962623E1,1.2407455E2,5.329487E1,1.6354904E1,9.314476E1,1.7311928E2,2.9783566E0,7.4603457E0,2.2165884E1,1.0276359E2,2.1310957E1,3.978688E1,1.350799E1,1.006716E1,6.287745E0,1.6542317E0,1.3241249E0,3.0755508E0,4.3847947E0],"tree_param":{"num_deleted":"0","num_feature":"5","num_nodes":"25","size_leaf_vector":"1"}},{"base_weights":[2.4627093E-2,1.9143417E-1,-3.7642097E-1,-2.2079538E-1,3.4001377E-1,-4.2949754E-1,1.9021188E-1,-4.8785034E-1,-9.2458844E-2,1.533418E-1,6.891959E-1,-4.501825E-2,-3.0069038E-1,6.35336E-2,-3.3366457E-1,-7.782794E-3,-4.2067833E-2,-2.3325536E-2,1.5124706E-2,1.920253E-2,-1.9065253E-2,1.9048741E-2,5.9627388E-2,-4.805805E-3,-4.2306785E-2,-4.2655323E-2,1.2763314E-2],"categories":[],"categories_nodes":[],"categories_segments":[],"categories_sizes":[],"default_left":[0,0,0,0,0,0,0,0,0,0,0,0,0,0,0,0,0,0,0,0,0,0,0,0,0,0,0],"id":39,"left_children":[1,3,5,7,9,11,13,15,17,19,21,-1,23,-1,25,-1,-1,-1,-1,-1,-1,-1,-1,-1,-1,-1,-1],"loss_changes":[3.337373E1,2.1649057E1,4.489645E0,3.1740313E0,1.6796663E1,2.1358604E0,4.456027E0,3.9781332E-1,3.6802819E0,5.83802E0,2.1031494E0,0E0,3.8351336E0,0E0,8.5239613E-1,0E0,0E0,0E0,0E0,0E0,0E0,0E0,0E0,0E0,0E0,0E0,0E0],"parents":[2147483647,0,0,1,1,2,2,3,3,4,4,5,5,6,6,7,7,8,8,9,9,10,10,12,12,14,14],"right_children":[2,4,6,8,10,12,14,16,18,20,22,-1,24,-1,26,-1,-1,-1,-1,-1,-1,-1,-1,-1,-1,-1,-1],"split_conditions":[2.5E0,7.49E1,1.624E2,4.53E1,1.9E0,1.085E2,2.9E0,1.7E0,4.2E0,1.31E2,8.7E1,-4.501825E-2,7.9E0,6.35336E-2,1.918E2,-7.782794E-3,-4.2067833E-2,-2.3325536E-2,1.5124706E-2,1.920253E-2,-1.9065253E-2,1.9048741E-2,5.9627388E-2,-4.805805E-3,-4.2306785E-2,-4.2655323E-2,1.2763314E-2],"split_indices":[2,3,3,3,0,3,0,0,4,3,3,0,4,0,3,0,0,0,0,0,0,0,0,0,0,0,0],"split_type":[0,0,0,0,0,0,0,0,0,0,0,0,0,0,0,0,0,0,0,0,0,0,0,0,0,0,0],"sum_hessian":[4.9680023E2,3.5123462E2,1.4556561E2,9.292658E1,2.58308E2,1.3331958E2,1.2246043E1,2.9252935E1,6.367365E1,1.6926076E2,8.904727E1,6.387857E1,6.9441E1,5.448601E0,6.7974424E0,2.9093127E0,2.6343622E1,3.7274574E1,2.6399075E1,1.3890297E2,3.0357784E1,1.0436913E1,7.861036E1,3.4411465E1,3.5029537E1,4.7818623E0,2.0155802E0],"tree_param":{"num_deleted":"0","num_feature":"5","num_nodes":"27","size_leaf_vector":"1"}},{"base_weights":[-2.4043338E-2,-3.8734722E-1,3.8543218E-1,2.5837567E-1,-5.3245676E-1,-4.722205E-2,5.662097E-1,-4.5112513E-2,4.9748585E-1,-3.680629E-1,-4.705658E-2,6.4850277E-1,2.7167547E-1,2.2314913E-3,5.9892546E-2,-3.5280567E-2,8.692151E-3,-1.0975139E-2,5.3783216E-2,4.4892956E-2,-2.737317E-3],"categories":[],"categories_nodes":[],"categories_segments":[],"categories_sizes":[],"default_left":[0,0,0,0,0,0,0,0,0,0,0,0,0,0,0,0,0,0,0,0,0],"id":40,"left_children":[1,3,5,7,9,-1,11,-1,13,15,-1,17,19,-1,-1,-1,-1,-1,-1,-1,-1],"loss_changes":[7.016043E1,2.355027E1,3.9448067E1,9.427376E0,1.6563454E0,0E0,4.3708534E0,0E0,4.2927446E0,1.9403486E0,0E0,2.8192253E0,3.7994213E0,0E0,0E0,0E0,0E0,0E0,0E0,0E0,0E0],"parents":[2147483647,0,0,1,1,2,2,3,3,4,4,6,6,8,8,9,9,11,11,12,12],"right_children":[2,4,6,8,10,-1,12,-1,14,16,-1,18,20,-1,-1,-1,-1,-1,-1,-1,-1],"split_conditions":[3E0,7.49E1,3.2E0,3.2E0,9.69E1,-4.722205E-2,1.294E2,-4.5112513E-2,1E-1,1.7E0,-4.705658E-2,4.3E0,3.4E0,2.2314913E-3,5.9892546E-2,-3.5280567E-2,8.692151E-3,-1.0975139E-2,5.3783216E-2,4.4892956E-2,-2.737317E-3],"split_indices":[0,3,1,1,3,0,3,0,0,0,0,1,4,0,0,0,0,0,0,0,0],"split_type":[0,0,0,0,0,0,0,0,0,0,0,0,0,0,0,0,0,0,0,0,0],"sum_hessian":[4.6961868E2,2.4886725E2,2.2075143E2,4.5521328E1,2.0334592E2,3.4152954E1,1.8659848E2,9.949023E0,3.5572304E1,5.3421577E1,1.4992433E2,1.44909E2,4.168948E1,1.2783389E1,2.2788916E1,4.6397068E1,7.0245094E0,4.1182227E0,1.4079077E2,2.0990358E1,2.0699121E1],"tree_param":{"num_deleted":"0","num_feature":"5","num_nodes":"21","size_leaf_vector":"1"}},{"base_weights":[1.0402537E-2,3.7295437E-1,-5.033491E-1,2.1365698E-1,6.4898974E-1,-3.41616E-1,-5.432647E-1,-2.4449848E-2,3.6609408E-1,1.696554E-1,5.7662796E-2,-5.1844835E-1,4.221855E-1,-4.386374E-2,-1.4884327E-1,7.7780583E-3,-3.7741333E-2,3.715715E-2,8.497274E-3,4.1102346E-2,-3.3835035E-2,-4.577249E-2,1.4345717E-3,-1.7302798E-2,5.9207447E-2,-2.928198E-2,1.42531805E-2],"categories":[],"categories_nodes":[],"categories_segments":[],"categories_sizes":[],"default_left":[0,0,0,0,0,0,0,0,0,0,0,0,0,0,0,0,0,0,0,0,0,0,0,0,0,0,0],"id":41,"left_children":[1,3,5,7,9,11,13,15,17,19,-1,21,23,-1,25,-1,-1,-1,-1,-1,-1,-1,-1,-1,-1,-1,-1],"loss_changes":[8.898761E1,1.2176853E1,1.0905037E0,6.5089855E0,3.3877869E0,5.867574E0,2.2969818E-1,3.9013445E0,2.743456E0,3.1935375E0,0E0,1.0014982E0,1.8677812E0,0E0,3.0302355E-1,0E0,0E0,0E0,0E0,0E0,0E0,0E0,0E0,0E0,0E0,0E0,0E0],"parents":[2147483647,0,0,1,1,2,2,3,3,4,4,5,5,6,6,7,7,8,8,9,9,11,11,12,12,14,14],"right_children":[2,4,6,8,10,12,14,16,18,20,-1,22,24,-1,26,-1,-1,-1,-1,-1,-1,-1,-1,-1,-1,-1,-1],"split_conditions":[1.5E0,2.5E0,3E0,1.04E2,3.3E0,7.6E0,1.918E2,2E-1,2E-1,9.2E1,5.7662796E-2,1.552E2,1.1E0,-4.386374E-2,1E-1,7.7780583E-3,-3.7741333E-2,3.715715E-2,8.497274E-3,4.1102346E-2,-3.3835035E-2,-4.577249E-2,1.4345717E-3,-1.7302798E-2,5.9207447E-2,-2.928198E-2,1.42531805E-2],"split_indices":[0,2,0,3,4,4,3,0,2,3,0,3,2,0,4,0,0,0,0,0,0,0,0,0,0,0,0],"split_type":[0,0,0,0,0,0,0,0,0,0,0,0,0,0,0,0,0,0,0,0,0,0,0,0,0,0,0],"sum_hessian":[4.757482E2,2.7907822E2,1.9666997E2,1.7808252E2,1.0099571E2,4.082209E1,1.5584789E2,6.9836876E1,1.0824564E2,1.359474E1,8.740097E1,3.3408672E1,7.413418E0,1.5349937E2,2.3485005E0,5.5517967E1,1.4318911E1,7.795173E1,3.029391E1,8.684547E0,4.910192E0,3.0307304E1,3.101369E0,2.5705361E0,4.8428817E0,1.3395367E0,1.0089638E0],"tree_param":{"num_deleted":"0","num_feature":"5","num_nodes":"27","size_leaf_vector":"1"}},{"base_weights":[3.4095948E-3,1.5424897E-1,-3.7666902E-1,-2.0560518E-1,2.8625292E-1,-4.2549506E-1,1.7219947E-1,4.3994498E-1,-5.1050395E-1,7.929281E-2,5.624173E-1,-2.5712904E-1,-5.199406E-1,5.926648E-2,-3.106534E-1,-3.290984E-2,5.8062527E-2,-8.919491E-3,-4.5047488E-2,-2.6365545E-2,5.7043914E-2,5.6518E-2,1.31502375E-2,-2.6235277E-2,1.2405674E-2,-4.301462E-2,-1.587461E-2,-4.1838832E-2,1.99536E-2],"categories":[],"categories_nodes":[],"categories_segments":[],"categories_sizes":[],"default_left":[0,0,0,0,0,0,0,0,0,0,0,0,0,0,0,0,0,0,0,0,0,0,0,0,0,0,0,0,0],"id":42,"left_children":[1,3,5,7,9,11,13,15,17,19,21,23,25,-1,27,-1,-1,-1,-1,-1,-1,-1,-1,-1,-1,-1,-1,-1,-1],"loss_changes":[2.8401716E1,1.690483E1,3.845272E0,1.9072502E1,1.4808706E1,1.926197E0,3.5825682E0,7.904315E0,1.3117123E0,3.9029167E1,6.2579575E0,1.467412E0,3.611107E-1,0E0,9.994692E-1,0E0,0E0,0E0,0E0,0E0,0E0,0E0,0E0,0E0,0E0,0E0,0E0,0E0,0E0],"parents":[2147483647,0,0,1,1,2,2,3,3,4,4,5,5,6,6,7,7,8,8,9,9,10,10,11,11,12,12,14,14],"right_children":[2,4,6,8,10,12,14,16,18,20,22,24,26,-1,28,-1,-1,-1,-1,-1,-1,-1,-1,-1,-1,-1,-1,-1,-1],"split_conditions":[2.5E0,7.55E1,1.624E2,3.7E0,4.4E0,7.2E0,2.8E0,1E-1,1E-1,1.9E0,8E-1,6.7E0,1.413E2,5.926648E-2,1.918E2,-3.290984E-2,5.8062527E-2,-8.919491E-3,-4.5047488E-2,-2.6365545E-2,5.7043914E-2,5.6518E-2,1.31502375E-2,-2.6235277E-2,1.2405674E-2,-4.301462E-2,-1.587461E-2,-4.1838832E-2,1.99536E-2],"split_indices":[2,3,3,1,1,1,0,0,0,0,2,1,3,0,3,0,0,0,0,0,0,0,0,0,0,0,0,0,0],"split_type":[0,0,0,0,0,0,0,0,0,0,0,0,0,0,0,0,0,0,0,0,0,0,0,0,0,0,0,0,0],"sum_hessian":[4.933871E2,3.53636E2,1.397511E2,9.475852E1,2.5887747E2,1.2854115E2,1.120994E1,3.0255922E1,6.4502594E1,1.4871571E2,1.1016176E2,4.7531067E1,8.1010086E1,4.902377E0,6.3075624E0,7.494771E0,2.2761152E1,7.8747907E0,5.6627808E1,9.068869E1,5.8027027E1,8.0318245E1,2.9843515E1,4.073722E1,6.793846E0,7.613619E1,4.8738966E0,4.6216483E0,1.6859143E0],"tree_param":{"num_deleted":"0","num_feature":"5","num_nodes":"29","size_leaf_vector":"1"}},{"base_weights":[-2.4229407E-2,-3.8220027E-1,3.6027417E-1,3.0813774E-1,-5.157858E-1,-5.613643E-1,5.331334E-1,-4.4152653E-1,5.6980634E-1,-3.3951128E-1,-4.6478264E-2,2.001475E-3,-4.6613794E-2,6.6879034E-1,3.5058984E-1,-4.446404E-2,1.1704229E-2,5.9944414E-2,-1.7570233E-2,-3.395558E-2,1.9337112E-2,-6.621463E-3,5.442759E-2,-4.0490273E-2,5.178394E-2],"categories":[],"categories_nodes":[],"categories_segments":[],"categories_sizes":[],"default_left":[0,0,0,0,0,0,0,0,0,0,0,0,0,0,0,0,0,0,0,0,0,0,0,0,0],"id":43,"left_children":[1,3,5,7,9,11,13,15,17,19,-1,-1,-1,21,23,-1,-1,-1,-1,-1,-1,-1,-1,-1,-1],"loss_changes":[6.300239E1,2.2015858E1,3.5462784E1,7.912431E0,2.0891228E0,4.5621777E-1,4.380726E0,7.979188E-1,4.328554E0,2.8730578E0,0E0,0E0,0E0,9.7520065E-1,2.105912E1,0E0,0E0,0E0,0E0,0E0,0E0,0E0,0E0,0E0,0E0],"parents":[2147483647,0,0,1,1,2,2,3,3,4,4,5,5,6,6,7,7,8,8,9,9,13,13,14,14],"right_children":[2,4,6,8,10,12,14,16,18,20,-1,-1,-1,22,24,-1,-1,-1,-1,-1,-1,-1,-1,-1,-1],"split_conditions":[3E0,7.21E1,3.1E0,4.5E0,9.69E1,3.57E1,9.91E1,2.4E0,2.5E0,1.7E0,-4.6478264E-2,2.001475E-3,-4.6613794E-2,3.9E0,2.9E0,-4.446404E-2,1.1704229E-2,5.9944414E-2,-1.7570233E-2,-3.395558E-2,1.9337112E-2,-6.621463E-3,5.442759E-2,-4.0490273E-2,5.178394E-2],"split_indices":[0,3,1,1,3,3,3,0,2,0,0,0,0,1,2,0,0,0,0,0,0,0,0,0,0],"split_type":[0,0,0,0,0,0,0,0,0,0,0,0,0,0,0,0,0,0,0,0,0,0,0,0,0],"sum_hessian":[4.5572916E2,2.3601054E2,2.197186E2,3.805335E1,1.9795718E2,3.4346245E1,1.8537236E2,9.667943E0,2.8385405E1,5.5121494E1,1.428357E2,1.198211E0,3.3148033E1,1.04815315E2,8.0557045E1,8.140013E0,1.5279305E0,2.3168308E1,5.217097E0,4.8329E1,6.792496E0,1.4937227E0,1.03321594E2,2.0541048E1,6.0015995E1],"tree_param":{"num_deleted":"0","num_feature":"5","num_nodes":"25","size_leaf_vector":"1"}},{"base_weights":[3.8966127E-3,3.3855155E-1,-4.982072E-1,5.9446293E-1,1.00512035E-1,-5.501399E-1,-3.7179518E-1,7.1214867E-1,2.654172E-1,-5.7966274E-1,5.6037134E-1,-4.519329E-2,-2.4857467E-1,-4.32223E-2,-1.348529E-1,6.066848E-2,3.1207327E-3,4.8228335E-2,6.09511E-4,-4.866178E-2,2.953113E-2,5.7646506E-3,5.478234E-2,3.296324E-2,-3.5126574E-2,6.705958E-2,-2.36808E-2],"categories":[],"categories_nodes":[],"categories_segments":[],"categories_sizes":[],"default_left":[0,0,0,0,0,0,0,0,0,0,0,0,0,0,0,0,0,0,0,0,0,0,0,0,0,0,0],"id":44,"left_children":[1,3,5,7,9,11,13,15,17,19,21,-1,23,-1,25,-1,-1,-1,-1,-1,-1,-1,-1,-1,-1,-1,-1],"loss_changes":[7.9207954E1,1.7170807E1,1.0331535E0,5.0815506E0,4.6537807E1,4.457512E-1,2.2418957E0,3.0701332E0,3.2531664E0,1.855629E0,5.336649E0,0E0,1.1789681E0,0E0,4.235935E0,0E0,0E0,0E0,0E0,0E0,0E0,0E0,0E0,0E0,0E0,0E0,0E0],"parents":[2147483647,0,0,1,1,2,2,3,3,4,4,5,5,6,6,7,7,8,8,9,9,10,10,12,12,14,14],"right_children":[2,4,6,8,10,12,14,16,18,20,22,-1,24,-1,26,-1,-1,-1,-1,-1,-1,-1,-1,-1,-1,-1,-1],"split_conditions":[1.5E0,5.1E0,1E1,9.8E0,1.8E0,9.8E0,3E0,8E-1,8E-1,1.15E1,4.1E0,-4.519329E-2,1E-1,-4.32223E-2,2E-1,6.066848E-2,3.1207327E-3,4.8228335E-2,6.09511E-4,-4.866178E-2,2.953113E-2,5.7646506E-3,5.478234E-2,3.296324E-2,-3.5126574E-2,6.705958E-2,-2.36808E-2],"split_indices":[0,1,1,4,2,4,2,0,1,4,4,0,1,0,4,0,0,0,0,0,0,0,0,0,0,0,0],"split_type":[0,0,0,0,0,0,0,0,0,0,0,0,0,0,0,0,0,0,0,0,0,0,0,0,0,0,0],"sum_hessian":[4.6938367E2,2.818529E2,1.8753078E2,1.3510596E2,1.4674693E2,1.3054727E2,5.6983505E1,9.865644E1,3.644952E1,5.9088707E1,8.7658226E1,1.2361694E2,6.930322E0,3.2554565E1,2.4428936E1,9.220076E1,6.455682E0,1.5206705E1,2.1242813E1,5.770754E1,1.3811677E0,1.811892E1,6.953931E1,1.2909368E0,5.639385E0,2.8739657E0,2.1554972E1],"tree_param":{"num_deleted":"0","num_feature":"5","num_nodes":"27","size_leaf_vector":"1"}},{"base_weights":[1.0319195E-2,1.5852492E-1,-3.6508465E-1,6.0208242E-2,2.273577E-1,1.1678939E-1,-3.9335588E-1,-4.0858373E-1,5.3944165E-1,6.1748075E-1,-5.0692875E-2,-3.836243E-2,8.052499E-1,-1.8678367E-1,-4.626829E-1,-4.1222733E-2,4.2121395E-2,5.1730778E-2,-1.4481504E-2,5.51762E-2,-3.981768E-3,4.025874E-2,-7.503206E-3,2.9631393E-2,8.512368E-2,3.284031E-2,-4.1180525E-2,-2.4562607E-2,-4.50077E-2],"categories":[],"categories_nodes":[],"categories_segments":[],"categories_sizes":[],"default_left":[0,0,0,0,0,0,0,0,0,0,0,0,0,0,0,0,0,0,0,0,0,0,0,0,0,0,0,0,0],"id":45,"left_children":[1,3,5,7,9,11,13,15,17,19,21,-1,23,25,27,-1,-1,-1,-1,-1,-1,-1,-1,-1,-1,-1,-1,-1,-1],"loss_changes":[2.6494728E1,2.2965002E0,1.8823032E0,3.210822E1,2.1772978E1,3.7695212E0,1.7403069E0,7.4870367E0,5.570778E0,4.057379E0,2.8629715E0,0E0,7.836461E-2,6.818578E0,1.3019695E0,0E0,0E0,0E0,0E0,0E0,0E0,0E0,0E0,0E0,0E0,0E0,0E0,0E0,0E0],"parents":[2147483647,0,0,1,1,2,2,3,3,4,4,5,5,6,6,7,7,8,8,9,9,10,10,12,12,13,13,14,14],"right_children":[2,4,6,8,10,12,14,16,18,20,22,-1,24,26,28,-1,-1,-1,-1,-1,-1,-1,-1,-1,-1,-1,-1,-1,-1],"split_conditions":[2.5E0,2E-1,2.8E0,3E0,3.3E0,1.2E0,1.6E0,1.26E1,9E-1,9.2E0,6E-1,-3.836243E-2,9.7E0,2.3E0,8.2E0,-4.1222733E-2,4.2121395E-2,5.1730778E-2,-1.4481504E-2,5.51762E-2,-3.981768E-3,4.025874E-2,-7.503206E-3,2.9631393E-2,8.512368E-2,3.284031E-2,-4.1180525E-2,-2.4562607E-2,-4.50077E-2],"split_indices":[2,0,1,1,1,1,4,4,2,4,0,0,4,0,1,0,0,0,0,0,0,0,0,0,0,0,0,0,0],"split_type":[0,0,0,0,0,0,0,0,0,0,0,0,0,0,0,0,0,0,0,0,0,0,0,0,0,0,0,0,0],"sum_hessian":[4.7416678E2,3.4036987E2,1.3379694E2,1.4093762E2,1.9943225E2,7.241239E0,1.2655569E2,7.1319466E1,6.961815E1,8.248278E1,1.1694946E2,4.0428996E0,3.1983397E0,3.2728767E1,9.382692E1,6.441795E1,6.90151E0,6.0690792E1,8.927359E0,7.439664E1,8.086144E0,7.671475E0,1.0927799E2,2.1003373E0,1.0980026E0,1.151202E1,2.1216747E1,3.8274246E1,5.5552673E1],"tree_param":{"num_deleted":"0","num_feature":"5","num_nodes":"29","size_leaf_vector":"1"}},{"base_weights":[-9.9408105E-3,-3.4970957E-1,3.655208E-1,3.2584512E-1,-4.9332324E-1,-5.533627E-1,5.340496E-1,-4.2913847E-2,5.3435117E-1,-2.2657892E-1,-5.48341E-1,2.5848045E-3,-4.6097346E-2,5.996652E-1,1.8369244E-1,5.1333398E-2,-2.8838443E-2,-3.6747523E-2,1.2026037E-2,-4.5780275E-2,-3.1304374E-2,1.8565265E-2,5.1082365E-2,3.7769154E-2,-1.4418366E-2],"categories":[],"categories_nodes":[],"categories_segments":[],"categories_sizes":[],"default_left":[0,0,0,0,0,0,0,0,0,0,0,0,0,0,0,0,0,0,0,0,0,0,0,0,0],"id":46,"left_children":[1,3,5,7,9,11,13,-1,15,17,19,-1,-1,21,23,-1,-1,-1,-1,-1,-1,-1,-1,-1,-1],"loss_changes":[5.627638E1,2.262671E1,3.27501E1,7.6937284E0,2.6841545E0,4.599409E-1,3.9727783E0,0E0,3.4653587E0,3.0891857E0,3.6915207E-1,0E0,0E0,1.982624E0,3.1769853E0,0E0,0E0,0E0,0E0,0E0,0E0,0E0,0E0,0E0,0E0],"parents":[2147483647,0,0,1,1,2,2,3,3,4,4,5,5,6,6,8,8,9,9,10,10,13,13,14,14],"right_children":[2,4,6,8,10,12,14,-1,16,18,20,-1,-1,22,24,-1,-1,-1,-1,-1,-1,-1,-1,-1,-1],"split_conditions":[3E0,7.21E1,3.2E0,3.2E0,8.85E1,3.57E1,1.411E2,-4.2913847E-2,6.2E0,6E-1,1.7E0,2.5848045E-3,-4.6097346E-2,5.8E0,3.4E0,5.1333398E-2,-2.8838443E-2,-3.6747523E-2,1.2026037E-2,-4.5780275E-2,-3.1304374E-2,1.8565265E-2,5.1082365E-2,3.7769154E-2,-1.4418366E-2],"split_indices":[0,3,1,1,3,3,3,0,4,0,0,0,0,1,4,0,0,0,0,0,0,0,0,0,0],"split_type":[0,0,0,0,0,0,0,0,0,0,0,0,0,0,0,0,0,0,0,0,0,0,0,0,0],"sum_hessian":[4.3913873E2,2.3056277E2,2.0857597E2,4.0198986E1,1.9036378E2,3.1971506E1,1.7660446E2,7.521487E0,3.2677498E1,3.342526E1,1.5693852E2,1.1851944E0,3.0786312E1,1.4814749E2,2.845698E1,2.9430809E1,3.2466898E0,2.052864E1,1.2896616E1,1.3390433E2,2.3034199E1,1.4831805E1,1.3331567E2,1.57093935E1,1.2747586E1],"tree_param":{"num_deleted":"0","num_feature":"5","num_nodes":"25","size_leaf_vector":"1"}},{"base_weights":[-1.1596586E-2,3.0965704E-1,-4.9331626E-1,1.3877936E-1,5.4705083E-1,-5.517511E-1,-3.8229728E-1,1.9752165E-2,4.219907E-1,-3.568502E-2,6.616793E-1,-4.5978833E-2,-2.0054008E-1,-3.655024E-2,-4.6968195E-1,1.0998356E-2,-4.4302583E-2,4.7280867E-2,-1.3565507E-2,3.1015396E-2,-2.971043E-2,5.358588E-2,1.0631558E-2,1.8942805E-2,-2.873646E-2,-3.8102686E-2,5.6192253E-2,-2.5178121E-2,-4.6166208E-2],"categories":[],"categories_nodes":[],"categories_segments":[],"categories_sizes":[],"default_left":[0,0,0,0,0,0,0,0,0,0,0,0,0,0,0,0,0,0,0,0,0,0,0,0,0,0,0,0,0],"id":47,"left_children":[1,3,5,7,9,11,13,15,17,19,21,-1,23,25,27,-1,-1,-1,-1,-1,-1,-1,-1,-1,-1,-1,-1,-1,-1],"loss_changes":[7.00086E1,1.0934212E1,9.6315765E-1,5.3568735E0,7.589096E0,8.236809E-1,1.9668007E0,7.7134423E0,4.8043137E0,2.9247656E0,3.187828E-1,0E0,6.873739E-1,4.9918013E0,6.892872E-1,0E0,0E0,0E0,0E0,0E0,0E0,0E0,0E0,0E0,0E0,0E0,0E0,0E0,0E0],"parents":[2147483647,0,0,1,1,2,2,3,3,4,4,5,5,6,6,7,7,8,8,9,9,10,10,12,12,13,13,14,14],"right_children":[2,4,6,8,10,12,14,16,18,20,22,-1,24,26,28,-1,-1,-1,-1,-1,-1,-1,-1,-1,-1,-1,-1,-1,-1],"split_conditions":[1.5E0,1.8E0,3E0,1.257E2,3.3E0,1.552E2,3E0,2E-1,2E-1,8.31E1,1.521E2,-4.5978833E-2,3E0,7.9E0,1.056E2,1.0998356E-2,-4.4302583E-2,4.7280867E-2,-1.3565507E-2,3.1015396E-2,-2.971043E-2,5.358588E-2,1.0631558E-2,1.8942805E-2,-2.873646E-2,-3.8102686E-2,5.6192253E-2,-2.5178121E-2,-4.6166208E-2],"split_indices":[0,2,2,3,4,3,0,0,2,3,3,0,0,4,3,0,0,0,0,0,0,0,0,0,0,0,0,0,0],"split_type":[0,0,0,0,0,0,0,0,0,0,0,0,0,0,0,0,0,0,0,0,0,0,0,0,0,0,0,0,0],"sum_hessian":[4.503987E2,2.7041745E2,1.7998128E2,1.5815848E2,1.12258965E2,1.1531524E2,6.4666046E1,1.1211069E2,4.6047794E1,1.8565643E1,9.369332E1,1.0763484E2,7.6803937E0,1.33325615E1,5.133348E1,9.364817E1,1.8462519E1,3.5815525E1,1.0232269E1,8.142043E0,1.0423601E1,9.200949E1,1.6838253E0,1.9136122E0,5.7667813E0,8.581425E0,4.751137E0,2.2622799E1,2.8710684E1],"tree_param":{"num_deleted":"0","num_feature":"5","num_nodes":"29","size_leaf_vector":"1"}},{"base_weights":[7.2250618E-3,1.627103E-1,-2.928758E-1,5.4857645E-2,2.4007215E-1,1.6004208E-1,-3.3530384E-1,-5.051095E-1,6.032555E-1,5.936513E-1,-2.582837E-2,-1.3441627E-1,6.079961E-2,-2.580322E-1,-5.219525E-1,-4.7034334E-2,2.9346684E-2,5.010433E-2,-8.549856E-3,-1.1645676E-2,5.2943587E-2,4.6403874E-2,-6.2715393E-3,2.58207E-2,-2.4477959E-2,3.208861E-3,-3.88416E-2,-6.683322E-3,-4.5162864E-2],"categories":[],"categories_nodes":[],"categories_segments":[],"categories_sizes":[],"default_left":[0,0,0,0,0,0,0,0,0,0,0,0,0,0,0,0,0,0,0,0,0,0,0,0,0,0,0,0,0],"id":48,"left_children":[1,3,5,7,9,11,13,15,17,19,21,23,-1,25,27,-1,-1,-1,-1,-1,-1,-1,-1,-1,-1,-1,-1,-1,-1],"loss_changes":[2.184786E1,2.5599804E0,3.1245756E0,4.025922E1,1.6871239E1,2.639874E0,1.9773979E0,4.9037914E0,1.1502857E0,3.974926E0,3.3350656E0,9.2114747E-1,0E0,7.177852E0,7.350321E-1,0E0,0E0,0E0,0E0,0E0,0E0,0E0,0E0,0E0,0E0,0E0,0E0,0E0,0E0],"parents":[2147483647,0,0,1,1,2,2,3,3,4,4,5,5,6,6,7,7,8,8,9,9,10,10,11,11,13,13,14,14],"right_children":[2,4,6,8,10,12,14,16,18,20,22,24,-1,26,28,-1,-1,-1,-1,-1,-1,-1,-1,-1,-1,-1,-1,-1,-1],"split_conditions":[1.6E0,2E-1,2.8E0,3E0,3.3E0,1.8E0,1.03E1,1.09E1,1E-1,8E-1,6E-1,1.9E0,6.079961E-2,2.9E0,4.3E0,-4.7034334E-2,2.9346684E-2,5.010433E-2,-8.549856E-3,-1.1645676E-2,5.2943587E-2,4.6403874E-2,-6.2715393E-3,2.58207E-2,-2.4477959E-2,3.208861E-3,-3.88416E-2,-6.683322E-3,-4.5162864E-2],"split_indices":[2,0,1,1,1,0,4,4,0,0,0,2,0,0,1,0,0,0,0,0,0,0,0,0,0,0,0,0,0],"split_type":[0,0,0,0,0,0,0,0,0,0,0,0,0,0,0,0,0,0,0,0,0,0,0,0,0,0,0,0,0],"sum_hessian":[4.6620157E2,3.07395E2,1.5880658E2,1.2910904E2,1.7828595E2,1.3364886E1,1.454417E2,6.391975E1,6.518929E1,7.599696E1,1.0228898E2,9.485391E0,3.8794959E0,1.045436E2,4.089809E1,5.867258E1,5.2471695E0,6.3254295E1,1.9350001E0,6.318419E0,6.967854E1,7.3649945E0,9.492399E1,2.3477304E0,7.13766E0,4.5601917E1,5.8941685E1,3.8829951E0,3.7015095E1],"tree_param":{"num_deleted":"0","num_feature":"5","num_nodes":"29","size_leaf_vector":"1"}},{"base_weights":[-2.2859434E-2,-3.5763335E-1,3.3505368E-1,3.4221348E-1,-5.01318E-1,1.1345301E-1,5.587213E-1,4.6975115E-1,-1.4865449E-1,-2.613575E-1,-5.539186E-1,4.788125E-1,-4.3540838E-1,5.69303E-1,7.024061E-4,4.0545225E-2,-1.1522281E-2,-2.884632E-2,4.5670122E-2,-3.6625214E-2,5.9219836E-3,-4.5886762E-2,-3.3280514E-2,4.3609906E-2,1.0279069E-2,1.1148718E-2,-4.6571024E-2,4.615506E-2,1.3128564E-2],"categories":[],"categories_nodes":[],"categories_segments":[],"categories_sizes":[],"default_left":[0,0,0,0,0,0,0,0,0,0,0,0,0,0,0,0,0,0,0,0,0,0,0,0,0,0,0,0,0],"id":49,"left_children":[1,3,5,7,9,11,13,15,17,19,21,23,25,27,-1,-1,-1,-1,-1,-1,-1,-1,-1,-1,-1,-1,-1,-1,-1],"loss_changes":[5.109034E1,2.2322817E1,1.0152306E1,2.4561138E0,2.167183E0,2.1221571E1,5.90435E-1,7.667632E-1,1.5203884E0,2.328505E0,1.6643143E-1,1.4024458E0,3.65701E0,2.1585083E-1,0E0,0E0,0E0,0E0,0E0,0E0,0E0,0E0,0E0,0E0,0E0,0E0,0E0,0E0,0E0],"parents":[2147483647,0,0,1,1,2,2,3,3,4,4,5,5,6,6,7,7,8,8,9,9,10,10,11,11,12,12,13,13],"right_children":[2,4,6,8,10,12,14,16,18,20,22,24,26,28,-1,-1,-1,-1,-1,-1,-1,-1,-1,-1,-1,-1,-1,-1,-1],"split_conditions":[3E0,7.21E1,1.6E0,2.5E0,8.85E1,7.02E1,1.5E1,6.2E0,1E-1,6E-1,1.7E0,5.99E1,1E-1,1.918E2,7.024061E-4,4.0545225E-2,-1.1522281E-2,-2.884632E-2,4.5670122E-2,-3.6625214E-2,5.9219836E-3,-4.5886762E-2,-3.3280514E-2,4.3609906E-2,1.0279069E-2,1.1148718E-2,-4.6571024E-2,4.615506E-2,1.3128564E-2],"split_indices":[0,3,2,2,3,3,4,4,0,0,0,3,4,3,0,0,0,0,0,0,0,0,0,0,0,0,0,0,0],"split_type":[0,0,0,0,0,0,0,0,0,0,0,0,0,0,0,0,0,0,0,0,0,0,0,0,0,0,0,0,0],"sum_hessian":[4.2439243E2,2.1928502E2,2.0510739E2,3.7117004E1,1.8216801E2,1.0378688E2,1.0132052E2,2.9496279E1,7.620725E0,3.382577E1,1.4834225E2,6.238608E1,4.1400795E1,9.937323E1,1.9472885E0,2.7980875E1,1.5154029E0,6.272227E0,1.3484986E0,2.110058E1,1.2725191E1,1.2706414E2,2.127811E1,5.198922E1,1.0396863E1,8.429817E0,3.2970978E1,9.7119316E1,2.2539163E0],"tree_param":{"num_deleted":"0","num_feature":"5","num_nodes":"29","size_leaf_vector":"1"}},{"base_weights":[-6.5677273E-3,2.9863653E-1,-4.8503897E-1,1.3545184E-1,5.367781E-1,-3.298269E-1,-5.278196E-1,1.6145224E-2,4.0693736E-1,1.4372251E-3,6.4224106E-1,-4.986044E-1,3.9929554E-1,-4.4947226E-2,-4.593495E-1,8.073699E-3,-4.0918536E-2,4.5325406E-2,-1.4837142E-2,3.7752844E-2,-2.5949577E-2,5.5341244E-2,4.1382067E-2,-4.4252194E-2,1.2385523E-3,-1.5442763E-2,5.4752246E-2,-2.2696257E-2,-4.5735154E-2],"categories":[],"categories_nodes":[],"categories_segments":[],"categories_sizes":[],"default_left":[0,0,0,0,0,0,0,0,0,0,0,0,0,0,0,0,0,0,0,0,0,0,0,0,0,0,0,0,0],"id":50,"left_children":[1,3,5,7,9,11,13,15,17,19,21,23,25,-1,27,-1,-1,-1,-1,-1,-1,-1,-1,-1,-1,-1,-1,-1,-1],"loss_changes":[6.514761E1,1.0512699E1,9.7953415E-1,5.272053E0,6.2332573E0,5.1467686E0,5.529785E-2,5.1623917E0,4.8061724E0,3.0923047E0,2.1305847E-1,9.365673E-1,1.5021701E0,0E0,8.271446E-1,0E0,0E0,0E0,0E0,0E0,0E0,0E0,0E0,0E0,0E0,0E0,0E0,0E0,0E0],"parents":[2147483647,0,0,1,1,2,2,3,3,4,4,5,5,6,6,7,7,8,8,9,9,10,10,11,11,12,12,14,14],"right_children":[2,4,6,8,10,12,14,16,18,20,22,24,26,-1,28,-1,-1,-1,-1,-1,-1,-1,-1,-1,-1,-1,-1,-1,-1],"split_conditions":[1.5E0,1.9E0,3E0,1.257E2,3.3E0,7.9E0,3E0,9.3E0,3E-1,7.85E1,1.206E2,2.9E0,1.1E0,-4.4947226E-2,1.056E2,8.073699E-3,-4.0918536E-2,4.5325406E-2,-1.4837142E-2,3.7752844E-2,-2.5949577E-2,5.5341244E-2,4.1382067E-2,-4.4252194E-2,1.2385523E-3,-1.5442763E-2,5.4752246E-2,-2.2696257E-2,-4.5735154E-2],"split_indices":[0,2,0,3,4,4,2,4,2,3,3,0,2,0,3,0,0,0,0,0,0,0,0,0,0,0,0,0,0],"split_type":[0,0,0,0,0,0,0,0,0,0,0,0,0,0,0,0,0,0,0,0,0,0,0,0,0,0,0,0,0],"sum_hessian":[4.4412848E2,2.7139108E2,1.727374E2,1.6197069E2,1.0942039E2,3.920559E1,1.3353181E2,1.1325798E2,4.871271E1,1.8175133E1,9.1245255E1,3.2092876E1,7.112712E0,8.439352E1,4.9138298E1,9.827625E1,1.4981728E1,3.8407043E1,1.0305666E1,7.2530756E0,1.0922057E1,6.209924E1,2.9146019E1,2.8945564E1,3.1473112E0,2.4160814E0,4.6966305E0,2.0543468E1,2.859483E1],"tree_param":{"num_deleted":"0","num_feature":"5","num_nodes":"29","size_leaf_vector":"1"}},{"base_weights":[2.1502813E-2,1.5533935E-1,-3.1953764E-1,-1.8657178E-1,2.7494544E-1,-3.6712703E-1,3.424271E-1,4.0846398E-1,-4.8436412E-1,3.4045417E-2,4.8928478E-1,-4.5077313E-2,-2.6543194E-1,4.8389798E-1,-2.634271E-2,3.9934676E-2,-1.0410485E-2,-4.1561134E-2,5.196183E-3,1.200129E-2,-2.1659512E-2,5.0663546E-2,1.7314367E-2,-8.260435E-3,-3.517084E-2,1.4761923E-3,5.605861E-2],"categories":[],"categories_nodes":[],"categories_segments":[],"categories_sizes":[],"default_left":[0,0,0,0,0,0,0,0,0,0,0,0,0,0,0,0,0,0,0,0,0,0,0,0,0,0,0],"id":51,"left_children":[1,3,5,7,9,11,13,15,17,19,21,-1,23,25,-1,-1,-1,-1,-1,-1,-1,-1,-1,-1,-1,-1,-1],"loss_changes":[2.0659687E1,1.3340228E1,4.145026E0,1.5226046E1,1.2434687E1,2.2367153E0,1.0216769E0,1.473628E0,1.1339531E0,4.0917764E0,4.874153E0,0E0,2.232348E0,7.8445673E-1,0E0,0E0,0E0,0E0,0E0,0E0,0E0,0E0,0E0,0E0,0E0,0E0,0E0],"parents":[2147483647,0,0,1,1,2,2,3,3,4,4,5,5,6,6,7,7,8,8,9,9,10,10,12,12,13,13],"right_children":[2,4,6,8,10,12,14,16,18,20,22,-1,24,26,-1,-1,-1,-1,-1,-1,-1,-1,-1,-1,-1,-1,-1],"split_conditions":[2.5E0,7.55E1,1.701E2,3.7E0,2.7E0,9.91E1,2.3E0,1E-1,7.21E1,1.262E2,3E-1,-4.5077313E-2,7.9E0,4.9E0,-2.634271E-2,3.9934676E-2,-1.0410485E-2,-4.1561134E-2,5.196183E-3,1.200129E-2,-2.1659512E-2,5.0663546E-2,1.7314367E-2,-8.260435E-3,-3.517084E-2,1.4761923E-3,5.605861E-2],"split_indices":[2,3,3,1,1,3,4,2,3,3,2,0,4,1,0,0,0,0,0,0,0,0,0,0,0,0,0],"split_type":[0,0,0,0,0,0,0,0,0,0,0,0,0,0,0,0,0,0,0,0,0,0,0,0,0,0,0],"sum_hessian":[4.5054233E2,3.239552E2,1.2658714E2,8.381064E1,2.4014455E2,1.1851255E2,8.0746E0,2.78301E1,5.5980537E1,1.13612335E2,1.2653221E2,3.8889362E1,7.9623184E1,6.900806E0,1.1737938E0,2.388085E1,3.9492493E0,5.2664837E1,3.3157032E0,8.266612E1,3.0946213E1,8.195592E1,4.457629E1,4.2059868E1,3.756332E1,2.5379906E0,4.3628154E0],"tree_param":{"num_deleted":"0","num_feature":"5","num_nodes":"27","size_leaf_vector":"1"}},{"base_weights":[-9.739904E-3,-3.3559334E-1,3.3995718E-1,-1.665775E-1,-5.397256E-1,-5.3704846E-1,4.9019605E-1,-5.0257355E-1,1.953478E-2,